digraph Tree {
node [shape=box, fontname="helvetica"] ;
edge [fontname="helvetica"] ;
0 [label="x[12] <= 100.5\ngini = 0.618\nsamples = 35000\nvalue = [6959, 17619, 10422]"] ;
1 [label="x[17] <= 0.5\ngini = 0.645\nsamples = 349\nvalue = [76, 147, 126]"] ;
0 -> 1 [labeldistance=2.5, labelangle=45, headlabel="True"] ;
2 [label="x[8] <= 124.5\ngini = 0.653\nsamples = 171\nvalue = [42, 59, 70]"] ;
1 -> 2 ;
3 [label="x[8] <= 122.5\ngini = 0.654\nsamples = 161\nvalue = [39.0, 59.0, 63.0]"] ;
2 -> 3 ;
4 [label="x[3] <= 36.205\ngini = 0.653\nsamples = 155\nvalue = [38, 54, 63]"] ;
3 -> 4 ;
5 [label="x[3] <= 27.535\ngini = 0.657\nsamples = 139\nvalue = [35, 52, 52]"] ;
4 -> 5 ;
6 [label="x[0] <= 79.5\ngini = 0.63\nsamples = 82\nvalue = [19.0, 23.0, 40.0]"] ;
5 -> 6 ;
7 [label="x[6] <= 168.9\ngini = 0.6\nsamples = 72\nvalue = [12, 22, 38]"] ;
6 -> 7 ;
8 [label="x[16] <= 0.5\ngini = 0.531\nsamples = 8\nvalue = [2, 5, 1]"] ;
7 -> 8 ;
9 [label="gini = 0.0\nsamples = 2\nvalue = [2, 0, 0]"] ;
8 -> 9 ;
10 [label="x[7] <= 163.0\ngini = 0.278\nsamples = 6\nvalue = [0, 5, 1]"] ;
8 -> 10 ;
11 [label="gini = 0.0\nsamples = 5\nvalue = [0, 5, 0]"] ;
10 -> 11 ;
12 [label="gini = 0.0\nsamples = 1\nvalue = [0, 0, 1]"] ;
10 -> 12 ;
13 [label="x[7] <= 93.5\ngini = 0.571\nsamples = 64\nvalue = [10, 17, 37]"] ;
7 -> 13 ;
14 [label="gini = 0.0\nsamples = 2\nvalue = [0, 2, 0]"] ;
13 -> 14 ;
15 [label="x[3] <= 21.44\ngini = 0.559\nsamples = 62\nvalue = [10, 15, 37]"] ;
13 -> 15 ;
16 [label="x[3] <= 19.525\ngini = 0.604\nsamples = 34\nvalue = [5, 12, 17]"] ;
15 -> 16 ;
17 [label="x[7] <= 130.5\ngini = 0.555\nsamples = 20\nvalue = [5, 3, 12]"] ;
16 -> 17 ;
18 [label="x[7] <= 111.0\ngini = 0.49\nsamples = 7\nvalue = [4, 0, 3]"] ;
17 -> 18 ;
19 [label="gini = 0.0\nsamples = 3\nvalue = [0, 0, 3]"] ;
18 -> 19 ;
20 [label="gini = 0.0\nsamples = 4\nvalue = [4, 0, 0]"] ;
18 -> 20 ;
21 [label="x[7] <= 162.0\ngini = 0.462\nsamples = 13\nvalue = [1, 3, 9]"] ;
17 -> 21 ;
22 [label="gini = 0.0\nsamples = 5\nvalue = [0, 0, 5]"] ;
21 -> 22 ;
23 [label="x[6] <= 211.85\ngini = 0.594\nsamples = 8\nvalue = [1, 3, 4]"] ;
21 -> 23 ;
24 [label="gini = 0.0\nsamples = 2\nvalue = [0, 2, 0]"] ;
23 -> 24 ;
25 [label="x[10] <= 0.5\ngini = 0.5\nsamples = 6\nvalue = [1, 1, 4]"] ;
23 -> 25 ;
26 [label="gini = 0.0\nsamples = 4\nvalue = [0, 0, 4]"] ;
25 -> 26 ;
27 [label="x[8] <= 101.5\ngini = 0.5\nsamples = 2\nvalue = [1, 1, 0]"] ;
25 -> 27 ;
28 [label="gini = 0.0\nsamples = 1\nvalue = [0, 1, 0]"] ;
27 -> 28 ;
29 [label="gini = 0.0\nsamples = 1\nvalue = [1, 0, 0]"] ;
27 -> 29 ;
30 [label="x[7] <= 145.0\ngini = 0.459\nsamples = 14\nvalue = [0, 9, 5]"] ;
16 -> 30 ;
31 [label="x[8] <= 108.0\ngini = 0.219\nsamples = 8\nvalue = [0, 7, 1]"] ;
30 -> 31 ;
32 [label="gini = 0.0\nsamples = 6\nvalue = [0, 6, 0]"] ;
31 -> 32 ;
33 [label="x[2] <= 0.5\ngini = 0.5\nsamples = 2\nvalue = [0, 1, 1]"] ;
31 -> 33 ;
34 [label="gini = 0.0\nsamples = 1\nvalue = [0, 1, 0]"] ;
33 -> 34 ;
35 [label="gini = 0.0\nsamples = 1\nvalue = [0, 0, 1]"] ;
33 -> 35 ;
36 [label="x[3] <= 20.26\ngini = 0.444\nsamples = 6\nvalue = [0, 2, 4]"] ;
30 -> 36 ;
37 [label="gini = 0.0\nsamples = 3\nvalue = [0, 0, 3]"] ;
36 -> 37 ;
38 [label="x[23] <= 0.5\ngini = 0.444\nsamples = 3\nvalue = [0, 2, 1]"] ;
36 -> 38 ;
39 [label="gini = 0.0\nsamples = 1\nvalue = [0, 0, 1]"] ;
38 -> 39 ;
40 [label="gini = 0.0\nsamples = 2\nvalue = [0, 2, 0]"] ;
38 -> 40 ;
41 [label="x[0] <= 30.5\ngini = 0.446\nsamples = 28\nvalue = [5, 3, 20]"] ;
15 -> 41 ;
42 [label="x[23] <= 0.5\ngini = 0.656\nsamples = 8\nvalue = [3, 2, 3]"] ;
41 -> 42 ;
43 [label="x[1] <= 0.5\ngini = 0.375\nsamples = 4\nvalue = [0, 1, 3]"] ;
42 -> 43 ;
44 [label="gini = 0.0\nsamples = 3\nvalue = [0, 0, 3]"] ;
43 -> 44 ;
45 [label="gini = 0.0\nsamples = 1\nvalue = [0, 1, 0]"] ;
43 -> 45 ;
46 [label="x[18] <= 0.5\ngini = 0.375\nsamples = 4\nvalue = [3, 1, 0]"] ;
42 -> 46 ;
47 [label="gini = 0.0\nsamples = 3\nvalue = [3, 0, 0]"] ;
46 -> 47 ;
48 [label="gini = 0.0\nsamples = 1\nvalue = [0, 1, 0]"] ;
46 -> 48 ;
49 [label="x[6] <= 181.05\ngini = 0.265\nsamples = 20\nvalue = [2, 1, 17]"] ;
41 -> 49 ;
50 [label="x[6] <= 174.1\ngini = 0.611\nsamples = 6\nvalue = [2, 1, 3]"] ;
49 -> 50 ;
51 [label="gini = 0.0\nsamples = 3\nvalue = [0, 0, 3]"] ;
50 -> 51 ;
52 [label="x[7] <= 112.5\ngini = 0.444\nsamples = 3\nvalue = [2, 1, 0]"] ;
50 -> 52 ;
53 [label="gini = 0.0\nsamples = 1\nvalue = [0, 1, 0]"] ;
52 -> 53 ;
54 [label="gini = 0.0\nsamples = 2\nvalue = [2, 0, 0]"] ;
52 -> 54 ;
55 [label="gini = 0.0\nsamples = 14\nvalue = [0, 0, 14]"] ;
49 -> 55 ;
56 [label="x[22] <= 0.5\ngini = 0.46\nsamples = 10\nvalue = [7, 1, 2]"] ;
6 -> 56 ;
57 [label="x[11] <= 0.5\ngini = 0.219\nsamples = 8\nvalue = [7, 1, 0]"] ;
56 -> 57 ;
58 [label="gini = 0.0\nsamples = 7\nvalue = [7, 0, 0]"] ;
57 -> 58 ;
59 [label="gini = 0.0\nsamples = 1\nvalue = [0, 1, 0]"] ;
57 -> 59 ;
60 [label="gini = 0.0\nsamples = 2\nvalue = [0, 0, 2]"] ;
56 -> 60 ;
61 [label="x[7] <= 148.0\ngini = 0.618\nsamples = 57\nvalue = [16, 29, 12]"] ;
5 -> 61 ;
62 [label="x[1] <= 0.5\ngini = 0.627\nsamples = 35\nvalue = [15, 14, 6]"] ;
61 -> 62 ;
63 [label="x[18] <= 0.5\ngini = 0.552\nsamples = 23\nvalue = [8.0, 13.0, 2.0]"] ;
62 -> 63 ;
64 [label="x[2] <= 0.5\ngini = 0.593\nsamples = 18\nvalue = [8, 8, 2]"] ;
63 -> 64 ;
65 [label="x[0] <= 30.5\ngini = 0.512\nsamples = 11\nvalue = [3, 7, 1]"] ;
64 -> 65 ;
66 [label="x[8] <= 81.0\ngini = 0.5\nsamples = 2\nvalue = [1, 0, 1]"] ;
65 -> 66 ;
67 [label="gini = 0.0\nsamples = 1\nvalue = [0, 0, 1]"] ;
66 -> 67 ;
68 [label="gini = 0.0\nsamples = 1\nvalue = [1, 0, 0]"] ;
66 -> 68 ;
69 [label="x[6] <= 223.05\ngini = 0.346\nsamples = 9\nvalue = [2, 7, 0]"] ;
65 -> 69 ;
70 [label="gini = 0.0\nsamples = 5\nvalue = [0, 5, 0]"] ;
69 -> 70 ;
71 [label="x[6] <= 243.6\ngini = 0.5\nsamples = 4\nvalue = [2, 2, 0]"] ;
69 -> 71 ;
72 [label="gini = 0.0\nsamples = 2\nvalue = [2, 0, 0]"] ;
71 -> 72 ;
73 [label="gini = 0.0\nsamples = 2\nvalue = [0, 2, 0]"] ;
71 -> 73 ;
74 [label="x[8] <= 113.0\ngini = 0.449\nsamples = 7\nvalue = [5, 1, 1]"] ;
64 -> 74 ;
75 [label="x[23] <= 0.5\ngini = 0.278\nsamples = 6\nvalue = [5, 1, 0]"] ;
74 -> 75 ;
76 [label="gini = 0.0\nsamples = 5\nvalue = [5, 0, 0]"] ;
75 -> 76 ;
77 [label="gini = 0.0\nsamples = 1\nvalue = [0, 1, 0]"] ;
75 -> 77 ;
78 [label="gini = 0.0\nsamples = 1\nvalue = [0, 0, 1]"] ;
74 -> 78 ;
79 [label="gini = 0.0\nsamples = 5\nvalue = [0, 5, 0]"] ;
63 -> 79 ;
80 [label="x[4] <= 0.5\ngini = 0.542\nsamples = 12\nvalue = [7, 1, 4]"] ;
62 -> 80 ;
81 [label="x[6] <= 208.7\ngini = 0.444\nsamples = 6\nvalue = [2, 0, 4]"] ;
80 -> 81 ;
82 [label="x[6] <= 171.3\ngini = 0.444\nsamples = 3\nvalue = [2, 0, 1]"] ;
81 -> 82 ;
83 [label="gini = 0.0\nsamples = 1\nvalue = [0, 0, 1]"] ;
82 -> 83 ;
84 [label="gini = 0.0\nsamples = 2\nvalue = [2, 0, 0]"] ;
82 -> 84 ;
85 [label="gini = 0.0\nsamples = 3\nvalue = [0, 0, 3]"] ;
81 -> 85 ;
86 [label="x[20] <= 0.5\ngini = 0.278\nsamples = 6\nvalue = [5, 1, 0]"] ;
80 -> 86 ;
87 [label="gini = 0.0\nsamples = 5\nvalue = [5, 0, 0]"] ;
86 -> 87 ;
88 [label="gini = 0.0\nsamples = 1\nvalue = [0, 1, 0]"] ;
86 -> 88 ;
89 [label="x[11] <= 0.5\ngini = 0.459\nsamples = 22\nvalue = [1.0, 15.0, 6.0]"] ;
61 -> 89 ;
90 [label="x[6] <= 218.5\ngini = 0.375\nsamples = 20\nvalue = [0, 15, 5]"] ;
89 -> 90 ;
91 [label="x[20] <= 0.5\ngini = 0.5\nsamples = 8\nvalue = [0, 4, 4]"] ;
90 -> 91 ;
92 [label="x[0] <= 69.0\ngini = 0.32\nsamples = 5\nvalue = [0, 1, 4]"] ;
91 -> 92 ;
93 [label="x[8] <= 93.0\ngini = 0.5\nsamples = 2\nvalue = [0, 1, 1]"] ;
92 -> 93 ;
94 [label="gini = 0.0\nsamples = 1\nvalue = [0, 1, 0]"] ;
93 -> 94 ;
95 [label="gini = 0.0\nsamples = 1\nvalue = [0, 0, 1]"] ;
93 -> 95 ;
96 [label="gini = 0.0\nsamples = 3\nvalue = [0, 0, 3]"] ;
92 -> 96 ;
97 [label="gini = 0.0\nsamples = 3\nvalue = [0, 3, 0]"] ;
91 -> 97 ;
98 [label="x[4] <= 0.5\ngini = 0.153\nsamples = 12\nvalue = [0, 11, 1]"] ;
90 -> 98 ;
99 [label="gini = 0.0\nsamples = 9\nvalue = [0, 9, 0]"] ;
98 -> 99 ;
100 [label="x[20] <= 0.5\ngini = 0.444\nsamples = 3\nvalue = [0, 2, 1]"] ;
98 -> 100 ;
101 [label="gini = 0.0\nsamples = 2\nvalue = [0, 2, 0]"] ;
100 -> 101 ;
102 [label="gini = 0.0\nsamples = 1\nvalue = [0, 0, 1]"] ;
100 -> 102 ;
103 [label="x[3] <= 31.145\ngini = 0.5\nsamples = 2\nvalue = [1, 0, 1]"] ;
89 -> 103 ;
104 [label="gini = 0.0\nsamples = 1\nvalue = [1, 0, 0]"] ;
103 -> 104 ;
105 [label="gini = 0.0\nsamples = 1\nvalue = [0, 0, 1]"] ;
103 -> 105 ;
106 [label="x[8] <= 80.5\ngini = 0.477\nsamples = 16\nvalue = [3, 2, 11]"] ;
4 -> 106 ;
107 [label="x[7] <= 122.0\ngini = 0.5\nsamples = 2\nvalue = [1, 1, 0]"] ;
106 -> 107 ;
108 [label="gini = 0.0\nsamples = 1\nvalue = [0, 1, 0]"] ;
107 -> 108 ;
109 [label="gini = 0.0\nsamples = 1\nvalue = [1, 0, 0]"] ;
107 -> 109 ;
110 [label="x[7] <= 170.5\ngini = 0.357\nsamples = 14\nvalue = [2, 1, 11]"] ;
106 -> 110 ;
111 [label="x[0] <= 56.5\ngini = 0.26\nsamples = 13\nvalue = [2, 0, 11]"] ;
110 -> 111 ;
112 [label="gini = 0.0\nsamples = 7\nvalue = [0, 0, 7]"] ;
111 -> 112 ;
113 [label="x[3] <= 38.825\ngini = 0.444\nsamples = 6\nvalue = [2, 0, 4]"] ;
111 -> 113 ;
114 [label="gini = 0.0\nsamples = 3\nvalue = [0, 0, 3]"] ;
113 -> 114 ;
115 [label="x[3] <= 39.41\ngini = 0.444\nsamples = 3\nvalue = [2, 0, 1]"] ;
113 -> 115 ;
116 [label="gini = 0.0\nsamples = 2\nvalue = [2, 0, 0]"] ;
115 -> 116 ;
117 [label="gini = 0.0\nsamples = 1\nvalue = [0, 0, 1]"] ;
115 -> 117 ;
118 [label="gini = 0.0\nsamples = 1\nvalue = [0, 1, 0]"] ;
110 -> 118 ;
119 [label="x[16] <= 0.5\ngini = 0.278\nsamples = 6\nvalue = [1, 5, 0]"] ;
3 -> 119 ;
120 [label="gini = 0.0\nsamples = 1\nvalue = [1, 0, 0]"] ;
119 -> 120 ;
121 [label="gini = 0.0\nsamples = 5\nvalue = [0, 5, 0]"] ;
119 -> 121 ;
122 [label="x[18] <= 0.5\ngini = 0.42\nsamples = 10\nvalue = [3, 0, 7]"] ;
2 -> 122 ;
123 [label="gini = 0.0\nsamples = 6\nvalue = [0, 0, 6]"] ;
122 -> 123 ;
124 [label="x[6] <= 205.75\ngini = 0.375\nsamples = 4\nvalue = [3, 0, 1]"] ;
122 -> 124 ;
125 [label="gini = 0.0\nsamples = 1\nvalue = [0, 0, 1]"] ;
124 -> 125 ;
126 [label="gini = 0.0\nsamples = 3\nvalue = [3, 0, 0]"] ;
124 -> 126 ;
127 [label="x[6] <= 160.6\ngini = 0.62\nsamples = 178\nvalue = [34, 88, 56]"] ;
1 -> 127 ;
128 [label="x[5] <= 0.5\ngini = 0.314\nsamples = 11\nvalue = [1, 1, 9]"] ;
127 -> 128 ;
129 [label="gini = 0.0\nsamples = 7\nvalue = [0, 0, 7]"] ;
128 -> 129 ;
130 [label="x[8] <= 100.0\ngini = 0.625\nsamples = 4\nvalue = [1, 1, 2]"] ;
128 -> 130 ;
131 [label="x[0] <= 43.0\ngini = 0.444\nsamples = 3\nvalue = [1, 0, 2]"] ;
130 -> 131 ;
132 [label="gini = 0.0\nsamples = 1\nvalue = [1, 0, 0]"] ;
131 -> 132 ;
133 [label="gini = 0.0\nsamples = 2\nvalue = [0, 0, 2]"] ;
131 -> 133 ;
134 [label="gini = 0.0\nsamples = 1\nvalue = [0, 1, 0]"] ;
130 -> 134 ;
135 [label="x[0] <= 34.0\ngini = 0.61\nsamples = 167\nvalue = [33, 87, 47]"] ;
127 -> 135 ;
136 [label="x[4] <= 0.5\ngini = 0.633\nsamples = 35\nvalue = [7, 12, 16]"] ;
135 -> 136 ;
137 [label="x[3] <= 34.155\ngini = 0.571\nsamples = 30\nvalue = [3, 11, 16]"] ;
136 -> 137 ;
138 [label="x[13] <= 0.5\ngini = 0.41\nsamples = 19\nvalue = [1, 4, 14]"] ;
137 -> 138 ;
139 [label="x[14] <= 0.5\ngini = 0.611\nsamples = 6\nvalue = [1, 3, 2]"] ;
138 -> 139 ;
140 [label="gini = 0.0\nsamples = 3\nvalue = [0, 3, 0]"] ;
139 -> 140 ;
141 [label="x[3] <= 20.685\ngini = 0.444\nsamples = 3\nvalue = [1, 0, 2]"] ;
139 -> 141 ;
142 [label="gini = 0.0\nsamples = 1\nvalue = [1, 0, 0]"] ;
141 -> 142 ;
143 [label="gini = 0.0\nsamples = 2\nvalue = [0, 0, 2]"] ;
141 -> 143 ;
144 [label="x[6] <= 178.0\ngini = 0.142\nsamples = 13\nvalue = [0, 1, 12]"] ;
138 -> 144 ;
145 [label="gini = 0.0\nsamples = 1\nvalue = [0, 1, 0]"] ;
144 -> 145 ;
146 [label="gini = 0.0\nsamples = 12\nvalue = [0, 0, 12]"] ;
144 -> 146 ;
147 [label="x[24] <= 0.5\ngini = 0.529\nsamples = 11\nvalue = [2, 7, 2]"] ;
137 -> 147 ;
148 [label="x[6] <= 290.75\ngini = 0.245\nsamples = 7\nvalue = [1, 6, 0]"] ;
147 -> 148 ;
149 [label="gini = 0.0\nsamples = 6\nvalue = [0, 6, 0]"] ;
148 -> 149 ;
150 [label="gini = 0.0\nsamples = 1\nvalue = [1, 0, 0]"] ;
148 -> 150 ;
151 [label="x[8] <= 97.5\ngini = 0.625\nsamples = 4\nvalue = [1, 1, 2]"] ;
147 -> 151 ;
152 [label="x[7] <= 131.5\ngini = 0.5\nsamples = 2\nvalue = [1, 1, 0]"] ;
151 -> 152 ;
153 [label="gini = 0.0\nsamples = 1\nvalue = [1, 0, 0]"] ;
152 -> 153 ;
154 [label="gini = 0.0\nsamples = 1\nvalue = [0, 1, 0]"] ;
152 -> 154 ;
155 [label="gini = 0.0\nsamples = 2\nvalue = [0, 0, 2]"] ;
151 -> 155 ;
156 [label="x[20] <= 0.5\ngini = 0.32\nsamples = 5\nvalue = [4, 1, 0]"] ;
136 -> 156 ;
157 [label="gini = 0.0\nsamples = 4\nvalue = [4, 0, 0]"] ;
156 -> 157 ;
158 [label="gini = 0.0\nsamples = 1\nvalue = [0, 1, 0]"] ;
156 -> 158 ;
159 [label="x[10] <= 0.5\ngini = 0.583\nsamples = 132\nvalue = [26, 75, 31]"] ;
135 -> 159 ;
160 [label="x[8] <= 118.5\ngini = 0.544\nsamples = 115\nvalue = [19, 71, 25]"] ;
159 -> 160 ;
161 [label="x[3] <= 32.32\ngini = 0.496\nsamples = 97\nvalue = [15, 65, 17]"] ;
160 -> 161 ;
162 [label="x[7] <= 101.5\ngini = 0.358\nsamples = 61\nvalue = [6, 48, 7]"] ;
161 -> 162 ;
163 [label="x[24] <= 0.5\ngini = 0.48\nsamples = 5\nvalue = [3, 2, 0]"] ;
162 -> 163 ;
164 [label="x[3] <= 26.74\ngini = 0.444\nsamples = 3\nvalue = [1, 2, 0]"] ;
163 -> 164 ;
165 [label="gini = 0.0\nsamples = 2\nvalue = [0, 2, 0]"] ;
164 -> 165 ;
166 [label="gini = 0.0\nsamples = 1\nvalue = [1, 0, 0]"] ;
164 -> 166 ;
167 [label="gini = 0.0\nsamples = 2\nvalue = [2, 0, 0]"] ;
163 -> 167 ;
168 [label="x[6] <= 224.7\ngini = 0.307\nsamples = 56\nvalue = [3, 46, 7]"] ;
162 -> 168 ;
169 [label="x[4] <= 0.5\ngini = 0.121\nsamples = 31\nvalue = [2, 29, 0]"] ;
168 -> 169 ;
170 [label="gini = 0.0\nsamples = 22\nvalue = [0, 22, 0]"] ;
169 -> 170 ;
171 [label="x[2] <= 0.5\ngini = 0.346\nsamples = 9\nvalue = [2, 7, 0]"] ;
169 -> 171 ;
172 [label="gini = 0.0\nsamples = 6\nvalue = [0, 6, 0]"] ;
171 -> 172 ;
173 [label="x[19] <= 0.5\ngini = 0.444\nsamples = 3\nvalue = [2, 1, 0]"] ;
171 -> 173 ;
174 [label="gini = 0.0\nsamples = 2\nvalue = [2, 0, 0]"] ;
173 -> 174 ;
175 [label="gini = 0.0\nsamples = 1\nvalue = [0, 1, 0]"] ;
173 -> 175 ;
176 [label="x[6] <= 233.3\ngini = 0.458\nsamples = 25\nvalue = [1.0, 17.0, 7.0]"] ;
168 -> 176 ;
177 [label="gini = 0.0\nsamples = 3\nvalue = [0, 0, 3]"] ;
176 -> 177 ;
178 [label="x[8] <= 88.5\ngini = 0.368\nsamples = 22\nvalue = [1, 17, 4]"] ;
176 -> 178 ;
179 [label="x[6] <= 264.5\ngini = 0.542\nsamples = 12\nvalue = [1, 7, 4]"] ;
178 -> 179 ;
180 [label="gini = 0.0\nsamples = 4\nvalue = [0, 4, 0]"] ;
179 -> 180 ;
181 [label="x[6] <= 285.0\ngini = 0.594\nsamples = 8\nvalue = [1, 3, 4]"] ;
179 -> 181 ;
182 [label="x[7] <= 156.5\ngini = 0.32\nsamples = 5\nvalue = [1, 0, 4]"] ;
181 -> 182 ;
183 [label="gini = 0.0\nsamples = 4\nvalue = [0, 0, 4]"] ;
182 -> 183 ;
184 [label="gini = 0.0\nsamples = 1\nvalue = [1, 0, 0]"] ;
182 -> 184 ;
185 [label="gini = 0.0\nsamples = 3\nvalue = [0, 3, 0]"] ;
181 -> 185 ;
186 [label="gini = 0.0\nsamples = 10\nvalue = [0, 10, 0]"] ;
178 -> 186 ;
187 [label="x[6] <= 290.6\ngini = 0.637\nsamples = 36\nvalue = [9, 17, 10]"] ;
161 -> 187 ;
188 [label="x[0] <= 85.5\ngini = 0.621\nsamples = 34\nvalue = [7, 17, 10]"] ;
187 -> 188 ;
189 [label="x[6] <= 228.9\ngini = 0.607\nsamples = 32\nvalue = [7, 17, 8]"] ;
188 -> 189 ;
190 [label="x[6] <= 182.0\ngini = 0.66\nsamples = 18\nvalue = [5, 6, 7]"] ;
189 -> 190 ;
191 [label="x[3] <= 38.855\ngini = 0.32\nsamples = 5\nvalue = [0, 4, 1]"] ;
190 -> 191 ;
192 [label="gini = 0.0\nsamples = 4\nvalue = [0, 4, 0]"] ;
191 -> 192 ;
193 [label="gini = 0.0\nsamples = 1\nvalue = [0, 0, 1]"] ;
191 -> 193 ;
194 [label="x[7] <= 121.5\ngini = 0.615\nsamples = 13\nvalue = [5, 2, 6]"] ;
190 -> 194 ;
195 [label="x[7] <= 92.5\ngini = 0.5\nsamples = 6\nvalue = [4, 1, 1]"] ;
194 -> 195 ;
196 [label="gini = 0.0\nsamples = 1\nvalue = [0, 0, 1]"] ;
195 -> 196 ;
197 [label="x[8] <= 71.0\ngini = 0.32\nsamples = 5\nvalue = [4, 1, 0]"] ;
195 -> 197 ;
198 [label="gini = 0.0\nsamples = 1\nvalue = [0, 1, 0]"] ;
197 -> 198 ;
199 [label="gini = 0.0\nsamples = 4\nvalue = [4, 0, 0]"] ;
197 -> 199 ;
200 [label="x[8] <= 111.5\ngini = 0.449\nsamples = 7\nvalue = [1, 1, 5]"] ;
194 -> 200 ;
201 [label="x[11] <= 0.5\ngini = 0.278\nsamples = 6\nvalue = [1, 0, 5]"] ;
200 -> 201 ;
202 [label="gini = 0.0\nsamples = 4\nvalue = [0, 0, 4]"] ;
201 -> 202 ;
203 [label="x[14] <= 0.5\ngini = 0.5\nsamples = 2\nvalue = [1, 0, 1]"] ;
201 -> 203 ;
204 [label="gini = 0.0\nsamples = 1\nvalue = [0, 0, 1]"] ;
203 -> 204 ;
205 [label="gini = 0.0\nsamples = 1\nvalue = [1, 0, 0]"] ;
203 -> 205 ;
206 [label="gini = 0.0\nsamples = 1\nvalue = [0, 1, 0]"] ;
200 -> 206 ;
207 [label="x[3] <= 32.845\ngini = 0.357\nsamples = 14\nvalue = [2, 11, 1]"] ;
189 -> 207 ;
208 [label="gini = 0.0\nsamples = 1\nvalue = [0, 0, 1]"] ;
207 -> 208 ;
209 [label="x[6] <= 265.75\ngini = 0.26\nsamples = 13\nvalue = [2, 11, 0]"] ;
207 -> 209 ;
210 [label="gini = 0.0\nsamples = 8\nvalue = [0, 8, 0]"] ;
209 -> 210 ;
211 [label="x[6] <= 269.4\ngini = 0.48\nsamples = 5\nvalue = [2, 3, 0]"] ;
209 -> 211 ;
212 [label="gini = 0.0\nsamples = 2\nvalue = [2, 0, 0]"] ;
211 -> 212 ;
213 [label="gini = 0.0\nsamples = 3\nvalue = [0, 3, 0]"] ;
211 -> 213 ;
214 [label="gini = 0.0\nsamples = 2\nvalue = [0, 0, 2]"] ;
188 -> 214 ;
215 [label="gini = 0.0\nsamples = 2\nvalue = [2, 0, 0]"] ;
187 -> 215 ;
216 [label="x[8] <= 125.5\ngini = 0.642\nsamples = 18\nvalue = [4, 6, 8]"] ;
160 -> 216 ;
217 [label="x[3] <= 32.875\ngini = 0.486\nsamples = 12\nvalue = [1, 3, 8]"] ;
216 -> 217 ;
218 [label="x[15] <= 0.5\ngini = 0.198\nsamples = 9\nvalue = [1, 0, 8]"] ;
217 -> 218 ;
219 [label="gini = 0.0\nsamples = 8\nvalue = [0, 0, 8]"] ;
218 -> 219 ;
220 [label="gini = 0.0\nsamples = 1\nvalue = [1, 0, 0]"] ;
218 -> 220 ;
221 [label="gini = 0.0\nsamples = 3\nvalue = [0, 3, 0]"] ;
217 -> 221 ;
222 [label="x[18] <= 0.5\ngini = 0.5\nsamples = 6\nvalue = [3, 3, 0]"] ;
216 -> 222 ;
223 [label="gini = 0.0\nsamples = 3\nvalue = [3, 0, 0]"] ;
222 -> 223 ;
224 [label="gini = 0.0\nsamples = 3\nvalue = [0, 3, 0]"] ;
222 -> 224 ;
225 [label="x[9] <= 0.5\ngini = 0.651\nsamples = 17\nvalue = [7, 4, 6]"] ;
159 -> 225 ;
226 [label="x[6] <= 269.4\ngini = 0.604\nsamples = 13\nvalue = [7, 3, 3]"] ;
225 -> 226 ;
227 [label="x[7] <= 171.5\ngini = 0.245\nsamples = 7\nvalue = [6, 0, 1]"] ;
226 -> 227 ;
228 [label="gini = 0.0\nsamples = 6\nvalue = [6, 0, 0]"] ;
227 -> 228 ;
229 [label="gini = 0.0\nsamples = 1\nvalue = [0, 0, 1]"] ;
227 -> 229 ;
230 [label="x[1] <= 0.5\ngini = 0.611\nsamples = 6\nvalue = [1, 3, 2]"] ;
226 -> 230 ;
231 [label="gini = 0.0\nsamples = 3\nvalue = [0, 3, 0]"] ;
230 -> 231 ;
232 [label="x[4] <= 0.5\ngini = 0.444\nsamples = 3\nvalue = [1, 0, 2]"] ;
230 -> 232 ;
233 [label="gini = 0.0\nsamples = 1\nvalue = [1, 0, 0]"] ;
232 -> 233 ;
234 [label="gini = 0.0\nsamples = 2\nvalue = [0, 0, 2]"] ;
232 -> 234 ;
235 [label="x[4] <= 0.5\ngini = 0.375\nsamples = 4\nvalue = [0, 1, 3]"] ;
225 -> 235 ;
236 [label="gini = 0.0\nsamples = 3\nvalue = [0, 0, 3]"] ;
235 -> 236 ;
237 [label="gini = 0.0\nsamples = 1\nvalue = [0, 1, 0]"] ;
235 -> 237 ;
238 [label="x[7] <= 110.5\ngini = 0.618\nsamples = 34651\nvalue = [6883.0, 17472.0, 10296.0]"] ;
0 -> 238 [labeldistance=2.5, labelangle=-45, headlabel="False"] ;
239 [label="x[6] <= 150.45\ngini = 0.625\nsamples = 8129\nvalue = [1682, 3983, 2464]"] ;
238 -> 239 ;
240 [label="x[7] <= 101.5\ngini = 0.538\nsamples = 24\nvalue = [4, 5, 15]"] ;
239 -> 240 ;
241 [label="x[12] <= 112.0\ngini = 0.272\nsamples = 13\nvalue = [1, 1, 11]"] ;
240 -> 241 ;
242 [label="x[20] <= 0.5\ngini = 0.5\nsamples = 2\nvalue = [1, 1, 0]"] ;
241 -> 242 ;
243 [label="gini = 0.0\nsamples = 1\nvalue = [0, 1, 0]"] ;
242 -> 243 ;
244 [label="gini = 0.0\nsamples = 1\nvalue = [1, 0, 0]"] ;
242 -> 244 ;
245 [label="gini = 0.0\nsamples = 11\nvalue = [0, 0, 11]"] ;
241 -> 245 ;
246 [label="x[3] <= 21.22\ngini = 0.661\nsamples = 11\nvalue = [3, 4, 4]"] ;
240 -> 246 ;
247 [label="gini = 0.0\nsamples = 3\nvalue = [0, 3, 0]"] ;
246 -> 247 ;
248 [label="x[7] <= 105.5\ngini = 0.594\nsamples = 8\nvalue = [3, 1, 4]"] ;
246 -> 248 ;
249 [label="x[20] <= 0.5\ngini = 0.56\nsamples = 5\nvalue = [3, 1, 1]"] ;
248 -> 249 ;
250 [label="gini = 0.0\nsamples = 3\nvalue = [3, 0, 0]"] ;
249 -> 250 ;
251 [label="x[7] <= 103.5\ngini = 0.5\nsamples = 2\nvalue = [0, 1, 1]"] ;
249 -> 251 ;
252 [label="gini = 0.0\nsamples = 1\nvalue = [0, 1, 0]"] ;
251 -> 252 ;
253 [label="gini = 0.0\nsamples = 1\nvalue = [0, 0, 1]"] ;
251 -> 253 ;
254 [label="gini = 0.0\nsamples = 3\nvalue = [0, 0, 3]"] ;
248 -> 254 ;
255 [label="x[5] <= 0.5\ngini = 0.625\nsamples = 8105\nvalue = [1678, 3978, 2449]"] ;
239 -> 255 ;
256 [label="x[15] <= 0.5\ngini = 0.623\nsamples = 5586\nvalue = [1186.0, 2777.0, 1623.0]"] ;
255 -> 256 ;
257 [label="x[6] <= 254.35\ngini = 0.615\nsamples = 3369\nvalue = [692.0, 1728.0, 949.0]"] ;
256 -> 257 ;
258 [label="x[9] <= 0.5\ngini = 0.609\nsamples = 2303\nvalue = [475, 1210, 618]"] ;
257 -> 258 ;
259 [label="x[8] <= 89.5\ngini = 0.619\nsamples = 1619\nvalue = [348.0, 821.0, 450.0]"] ;
258 -> 259 ;
260 [label="x[8] <= 72.5\ngini = 0.634\nsamples = 687\nvalue = [150, 324, 213]"] ;
259 -> 260 ;
261 [label="x[12] <= 162.5\ngini = 0.623\nsamples = 308\nvalue = [77, 155, 76]"] ;
260 -> 261 ;
262 [label="x[0] <= 83.5\ngini = 0.6\nsamples = 193\nvalue = [56.0, 103.0, 34.0]"] ;
261 -> 262 ;
263 [label="x[6] <= 190.8\ngini = 0.582\nsamples = 178\nvalue = [49, 100, 29]"] ;
262 -> 263 ;
264 [label="x[6] <= 175.55\ngini = 0.526\nsamples = 68\nvalue = [24, 40, 4]"] ;
263 -> 264 ;
265 [label="x[19] <= 0.5\ngini = 0.488\nsamples = 45\nvalue = [11, 30, 4]"] ;
264 -> 265 ;
266 [label="x[12] <= 160.5\ngini = 0.554\nsamples = 36\nvalue = [11, 21, 4]"] ;
265 -> 266 ;
267 [label="x[0] <= 58.5\ngini = 0.535\nsamples = 34\nvalue = [9, 21, 4]"] ;
266 -> 267 ;
268 [label="x[6] <= 171.9\ngini = 0.304\nsamples = 17\nvalue = [2, 14, 1]"] ;
267 -> 268 ;
269 [label="x[3] <= 23.95\ngini = 0.219\nsamples = 16\nvalue = [2, 14, 0]"] ;
268 -> 269 ;
270 [label="x[7] <= 96.5\ngini = 0.444\nsamples = 6\nvalue = [2, 4, 0]"] ;
269 -> 270 ;
271 [label="gini = 0.0\nsamples = 2\nvalue = [2, 0, 0]"] ;
270 -> 271 ;
272 [label="gini = 0.0\nsamples = 4\nvalue = [0, 4, 0]"] ;
270 -> 272 ;
273 [label="gini = 0.0\nsamples = 10\nvalue = [0, 10, 0]"] ;
269 -> 273 ;
274 [label="gini = 0.0\nsamples = 1\nvalue = [0, 0, 1]"] ;
268 -> 274 ;
275 [label="x[8] <= 60.5\ngini = 0.63\nsamples = 17\nvalue = [7, 7, 3]"] ;
267 -> 275 ;
276 [label="gini = 0.0\nsamples = 2\nvalue = [0, 0, 2]"] ;
275 -> 276 ;
277 [label="x[18] <= 0.5\ngini = 0.56\nsamples = 15\nvalue = [7, 7, 1]"] ;
275 -> 277 ;
278 [label="x[6] <= 172.3\ngini = 0.531\nsamples = 8\nvalue = [5, 2, 1]"] ;
277 -> 278 ;
279 [label="x[17] <= 0.5\ngini = 0.278\nsamples = 6\nvalue = [5, 0, 1]"] ;
278 -> 279 ;
280 [label="x[23] <= 0.5\ngini = 0.5\nsamples = 2\nvalue = [1, 0, 1]"] ;
279 -> 280 ;
281 [label="gini = 0.0\nsamples = 1\nvalue = [0, 0, 1]"] ;
280 -> 281 ;
282 [label="gini = 0.0\nsamples = 1\nvalue = [1, 0, 0]"] ;
280 -> 282 ;
283 [label="gini = 0.0\nsamples = 4\nvalue = [4, 0, 0]"] ;
279 -> 283 ;
284 [label="gini = 0.0\nsamples = 2\nvalue = [0, 2, 0]"] ;
278 -> 284 ;
285 [label="x[22] <= 0.5\ngini = 0.408\nsamples = 7\nvalue = [2, 5, 0]"] ;
277 -> 285 ;
286 [label="gini = 0.0\nsamples = 4\nvalue = [0, 4, 0]"] ;
285 -> 286 ;
287 [label="x[12] <= 108.5\ngini = 0.444\nsamples = 3\nvalue = [2, 1, 0]"] ;
285 -> 287 ;
288 [label="gini = 0.0\nsamples = 1\nvalue = [0, 1, 0]"] ;
287 -> 288 ;
289 [label="gini = 0.0\nsamples = 2\nvalue = [2, 0, 0]"] ;
287 -> 289 ;
290 [label="gini = 0.0\nsamples = 2\nvalue = [2, 0, 0]"] ;
266 -> 290 ;
291 [label="gini = 0.0\nsamples = 9\nvalue = [0, 9, 0]"] ;
265 -> 291 ;
292 [label="x[0] <= 36.5\ngini = 0.491\nsamples = 23\nvalue = [13.0, 10.0, 0.0]"] ;
264 -> 292 ;
293 [label="gini = 0.0\nsamples = 5\nvalue = [5, 0, 0]"] ;
292 -> 293 ;
294 [label="x[7] <= 106.0\ngini = 0.494\nsamples = 18\nvalue = [8, 10, 0]"] ;
292 -> 294 ;
295 [label="x[0] <= 79.5\ngini = 0.49\nsamples = 14\nvalue = [8, 6, 0]"] ;
294 -> 295 ;
296 [label="x[2] <= 0.5\ngini = 0.444\nsamples = 12\nvalue = [8, 4, 0]"] ;
295 -> 296 ;
297 [label="x[8] <= 67.5\ngini = 0.49\nsamples = 7\nvalue = [3, 4, 0]"] ;
296 -> 297 ;
298 [label="gini = 0.0\nsamples = 3\nvalue = [0, 3, 0]"] ;
297 -> 298 ;
299 [label="x[6] <= 190.4\ngini = 0.375\nsamples = 4\nvalue = [3, 1, 0]"] ;
297 -> 299 ;
300 [label="gini = 0.0\nsamples = 3\nvalue = [3, 0, 0]"] ;
299 -> 300 ;
301 [label="gini = 0.0\nsamples = 1\nvalue = [0, 1, 0]"] ;
299 -> 301 ;
302 [label="gini = 0.0\nsamples = 5\nvalue = [5, 0, 0]"] ;
296 -> 302 ;
303 [label="gini = 0.0\nsamples = 2\nvalue = [0, 2, 0]"] ;
295 -> 303 ;
304 [label="gini = 0.0\nsamples = 4\nvalue = [0, 4, 0]"] ;
294 -> 304 ;
305 [label="x[12] <= 120.5\ngini = 0.599\nsamples = 110\nvalue = [25.0, 60.0, 25.0]"] ;
263 -> 305 ;
306 [label="x[12] <= 118.5\ngini = 0.495\nsamples = 31\nvalue = [2, 20, 9]"] ;
305 -> 306 ;
307 [label="x[7] <= 93.5\ngini = 0.45\nsamples = 27\nvalue = [2, 19, 6]"] ;
306 -> 307 ;
308 [label="gini = 0.0\nsamples = 2\nvalue = [0, 0, 2]"] ;
307 -> 308 ;
309 [label="x[3] <= 21.065\ngini = 0.39\nsamples = 25\nvalue = [2, 19, 4]"] ;
307 -> 309 ;
310 [label="x[12] <= 106.5\ngini = 0.611\nsamples = 6\nvalue = [2, 3, 1]"] ;
309 -> 310 ;
311 [label="gini = 0.0\nsamples = 2\nvalue = [2, 0, 0]"] ;
310 -> 311 ;
312 [label="x[7] <= 105.0\ngini = 0.375\nsamples = 4\nvalue = [0, 3, 1]"] ;
310 -> 312 ;
313 [label="gini = 0.0\nsamples = 1\nvalue = [0, 0, 1]"] ;
312 -> 313 ;
314 [label="gini = 0.0\nsamples = 3\nvalue = [0, 3, 0]"] ;
312 -> 314 ;
315 [label="x[6] <= 219.5\ngini = 0.266\nsamples = 19\nvalue = [0, 16, 3]"] ;
309 -> 315 ;
316 [label="x[7] <= 106.0\ngini = 0.469\nsamples = 8\nvalue = [0, 5, 3]"] ;
315 -> 316 ;
317 [label="x[18] <= 0.5\ngini = 0.278\nsamples = 6\nvalue = [0, 5, 1]"] ;
316 -> 317 ;
318 [label="gini = 0.0\nsamples = 5\nvalue = [0, 5, 0]"] ;
317 -> 318 ;
319 [label="gini = 0.0\nsamples = 1\nvalue = [0, 0, 1]"] ;
317 -> 319 ;
320 [label="gini = 0.0\nsamples = 2\nvalue = [0, 0, 2]"] ;
316 -> 320 ;
321 [label="gini = 0.0\nsamples = 11\nvalue = [0, 11, 0]"] ;
315 -> 321 ;
322 [label="x[0] <= 31.5\ngini = 0.375\nsamples = 4\nvalue = [0, 1, 3]"] ;
306 -> 322 ;
323 [label="gini = 0.0\nsamples = 1\nvalue = [0, 1, 0]"] ;
322 -> 323 ;
324 [label="gini = 0.0\nsamples = 3\nvalue = [0, 0, 3]"] ;
322 -> 324 ;
325 [label="x[0] <= 19.5\ngini = 0.618\nsamples = 79\nvalue = [23, 40, 16]"] ;
305 -> 325 ;
326 [label="gini = 0.0\nsamples = 3\nvalue = [3, 0, 0]"] ;
325 -> 326 ;
327 [label="x[2] <= 0.5\ngini = 0.609\nsamples = 76\nvalue = [20, 40, 16]"] ;
325 -> 327 ;
328 [label="x[8] <= 70.5\ngini = 0.619\nsamples = 46\nvalue = [9, 23, 14]"] ;
327 -> 328 ;
329 [label="x[0] <= 45.5\ngini = 0.583\nsamples = 39\nvalue = [5, 21, 13]"] ;
328 -> 329 ;
330 [label="x[19] <= 0.5\ngini = 0.438\nsamples = 18\nvalue = [2, 13, 3]"] ;
329 -> 330 ;
331 [label="x[8] <= 61.5\ngini = 0.231\nsamples = 15\nvalue = [2, 13, 0]"] ;
330 -> 331 ;
332 [label="x[3] <= 34.675\ngini = 0.444\nsamples = 3\nvalue = [2, 1, 0]"] ;
331 -> 332 ;
333 [label="gini = 0.0\nsamples = 2\nvalue = [2, 0, 0]"] ;
332 -> 333 ;
334 [label="gini = 0.0\nsamples = 1\nvalue = [0, 1, 0]"] ;
332 -> 334 ;
335 [label="gini = 0.0\nsamples = 12\nvalue = [0, 12, 0]"] ;
331 -> 335 ;
336 [label="gini = 0.0\nsamples = 3\nvalue = [0, 0, 3]"] ;
330 -> 336 ;
337 [label="x[3] <= 21.785\ngini = 0.608\nsamples = 21\nvalue = [3, 8, 10]"] ;
329 -> 337 ;
338 [label="gini = 0.0\nsamples = 3\nvalue = [0, 3, 0]"] ;
337 -> 338 ;
339 [label="x[21] <= 0.5\ngini = 0.586\nsamples = 18\nvalue = [3, 5, 10]"] ;
337 -> 339 ;
340 [label="gini = 0.0\nsamples = 7\nvalue = [0, 0, 7]"] ;
339 -> 340 ;
341 [label="x[3] <= 22.565\ngini = 0.645\nsamples = 11\nvalue = [3, 5, 3]"] ;
339 -> 341 ;
342 [label="gini = 0.0\nsamples = 2\nvalue = [0, 0, 2]"] ;
341 -> 342 ;
343 [label="x[20] <= 0.5\ngini = 0.568\nsamples = 9\nvalue = [3, 5, 1]"] ;
341 -> 343 ;
344 [label="x[0] <= 54.0\ngini = 0.449\nsamples = 7\nvalue = [1, 5, 1]"] ;
343 -> 344 ;
345 [label="x[8] <= 64.0\ngini = 0.5\nsamples = 2\nvalue = [1, 0, 1]"] ;
344 -> 345 ;
346 [label="gini = 0.0\nsamples = 1\nvalue = [1, 0, 0]"] ;
345 -> 346 ;
347 [label="gini = 0.0\nsamples = 1\nvalue = [0, 0, 1]"] ;
345 -> 347 ;
348 [label="gini = 0.0\nsamples = 5\nvalue = [0, 5, 0]"] ;
344 -> 348 ;
349 [label="gini = 0.0\nsamples = 2\nvalue = [2, 0, 0]"] ;
343 -> 349 ;
350 [label="x[20] <= 0.5\ngini = 0.571\nsamples = 7\nvalue = [4, 2, 1]"] ;
328 -> 350 ;
351 [label="gini = 0.0\nsamples = 4\nvalue = [4, 0, 0]"] ;
350 -> 351 ;
352 [label="x[23] <= 0.5\ngini = 0.444\nsamples = 3\nvalue = [0, 2, 1]"] ;
350 -> 352 ;
353 [label="gini = 0.0\nsamples = 1\nvalue = [0, 0, 1]"] ;
352 -> 353 ;
354 [label="gini = 0.0\nsamples = 2\nvalue = [0, 2, 0]"] ;
352 -> 354 ;
355 [label="x[14] <= 0.5\ngini = 0.54\nsamples = 30\nvalue = [11, 17, 2]"] ;
327 -> 355 ;
356 [label="x[6] <= 212.35\ngini = 0.571\nsamples = 7\nvalue = [4, 1, 2]"] ;
355 -> 356 ;
357 [label="x[22] <= 0.5\ngini = 0.5\nsamples = 2\nvalue = [0, 1, 1]"] ;
356 -> 357 ;
358 [label="gini = 0.0\nsamples = 1\nvalue = [0, 0, 1]"] ;
357 -> 358 ;
359 [label="gini = 0.0\nsamples = 1\nvalue = [0, 1, 0]"] ;
357 -> 359 ;
360 [label="x[7] <= 91.0\ngini = 0.32\nsamples = 5\nvalue = [4, 0, 1]"] ;
356 -> 360 ;
361 [label="gini = 0.0\nsamples = 1\nvalue = [0, 0, 1]"] ;
360 -> 361 ;
362 [label="gini = 0.0\nsamples = 4\nvalue = [4, 0, 0]"] ;
360 -> 362 ;
363 [label="x[7] <= 107.0\ngini = 0.423\nsamples = 23\nvalue = [7, 16, 0]"] ;
355 -> 363 ;
364 [label="x[22] <= 0.5\ngini = 0.332\nsamples = 19\nvalue = [4, 15, 0]"] ;
363 -> 364 ;
365 [label="x[3] <= 18.64\ngini = 0.153\nsamples = 12\nvalue = [1, 11, 0]"] ;
364 -> 365 ;
366 [label="x[7] <= 100.5\ngini = 0.5\nsamples = 2\nvalue = [1, 1, 0]"] ;
365 -> 366 ;
367 [label="gini = 0.0\nsamples = 1\nvalue = [1, 0, 0]"] ;
366 -> 367 ;
368 [label="gini = 0.0\nsamples = 1\nvalue = [0, 1, 0]"] ;
366 -> 368 ;
369 [label="gini = 0.0\nsamples = 10\nvalue = [0, 10, 0]"] ;
365 -> 369 ;
370 [label="x[7] <= 100.5\ngini = 0.49\nsamples = 7\nvalue = [3, 4, 0]"] ;
364 -> 370 ;
371 [label="gini = 0.0\nsamples = 2\nvalue = [2, 0, 0]"] ;
370 -> 371 ;
372 [label="x[0] <= 70.0\ngini = 0.32\nsamples = 5\nvalue = [1, 4, 0]"] ;
370 -> 372 ;
373 [label="gini = 0.0\nsamples = 4\nvalue = [0, 4, 0]"] ;
372 -> 373 ;
374 [label="gini = 0.0\nsamples = 1\nvalue = [1, 0, 0]"] ;
372 -> 374 ;
375 [label="x[8] <= 70.5\ngini = 0.375\nsamples = 4\nvalue = [3, 1, 0]"] ;
363 -> 375 ;
376 [label="gini = 0.0\nsamples = 3\nvalue = [3, 0, 0]"] ;
375 -> 376 ;
377 [label="gini = 0.0\nsamples = 1\nvalue = [0, 1, 0]"] ;
375 -> 377 ;
378 [label="x[18] <= 0.5\ngini = 0.631\nsamples = 15\nvalue = [7, 3, 5]"] ;
262 -> 378 ;
379 [label="x[17] <= 0.5\ngini = 0.512\nsamples = 11\nvalue = [7, 1, 3]"] ;
378 -> 379 ;
380 [label="gini = 0.0\nsamples = 4\nvalue = [4, 0, 0]"] ;
379 -> 380 ;
381 [label="x[12] <= 133.5\ngini = 0.612\nsamples = 7\nvalue = [3, 1, 3]"] ;
379 -> 381 ;
382 [label="x[10] <= 0.5\ngini = 0.56\nsamples = 5\nvalue = [3, 1, 1]"] ;
381 -> 382 ;
383 [label="gini = 0.0\nsamples = 3\nvalue = [3, 0, 0]"] ;
382 -> 383 ;
384 [label="x[7] <= 104.5\ngini = 0.5\nsamples = 2\nvalue = [0, 1, 1]"] ;
382 -> 384 ;
385 [label="gini = 0.0\nsamples = 1\nvalue = [0, 0, 1]"] ;
384 -> 385 ;
386 [label="gini = 0.0\nsamples = 1\nvalue = [0, 1, 0]"] ;
384 -> 386 ;
387 [label="gini = 0.0\nsamples = 2\nvalue = [0, 0, 2]"] ;
381 -> 387 ;
388 [label="x[24] <= 0.5\ngini = 0.5\nsamples = 4\nvalue = [0, 2, 2]"] ;
378 -> 388 ;
389 [label="gini = 0.0\nsamples = 2\nvalue = [0, 2, 0]"] ;
388 -> 389 ;
390 [label="gini = 0.0\nsamples = 2\nvalue = [0, 0, 2]"] ;
388 -> 390 ;
391 [label="x[6] <= 170.6\ngini = 0.629\nsamples = 115\nvalue = [21, 52, 42]"] ;
261 -> 391 ;
392 [label="x[12] <= 170.0\ngini = 0.427\nsamples = 15\nvalue = [2, 2, 11]"] ;
391 -> 392 ;
393 [label="gini = 0.0\nsamples = 2\nvalue = [0, 2, 0]"] ;
392 -> 393 ;
394 [label="x[8] <= 67.5\ngini = 0.26\nsamples = 13\nvalue = [2, 0, 11]"] ;
392 -> 394 ;
395 [label="gini = 0.0\nsamples = 10\nvalue = [0, 0, 10]"] ;
394 -> 395 ;
396 [label="x[17] <= 0.5\ngini = 0.444\nsamples = 3\nvalue = [2, 0, 1]"] ;
394 -> 396 ;
397 [label="gini = 0.0\nsamples = 2\nvalue = [2, 0, 0]"] ;
396 -> 397 ;
398 [label="gini = 0.0\nsamples = 1\nvalue = [0, 0, 1]"] ;
396 -> 398 ;
399 [label="x[12] <= 180.5\ngini = 0.618\nsamples = 100\nvalue = [19, 50, 31]"] ;
391 -> 399 ;
400 [label="x[13] <= 0.5\ngini = 0.628\nsamples = 45\nvalue = [8, 17, 20]"] ;
399 -> 400 ;
401 [label="x[21] <= 0.5\ngini = 0.559\nsamples = 24\nvalue = [3, 14, 7]"] ;
400 -> 401 ;
402 [label="x[7] <= 107.5\ngini = 0.492\nsamples = 22\nvalue = [1, 14, 7]"] ;
401 -> 402 ;
403 [label="x[20] <= 0.5\ngini = 0.445\nsamples = 20\nvalue = [1, 14, 5]"] ;
402 -> 403 ;
404 [label="x[8] <= 64.5\ngini = 0.245\nsamples = 14\nvalue = [0, 12, 2]"] ;
403 -> 404 ;
405 [label="x[18] <= 0.5\ngini = 0.48\nsamples = 5\nvalue = [0, 3, 2]"] ;
404 -> 405 ;
406 [label="gini = 0.0\nsamples = 2\nvalue = [0, 0, 2]"] ;
405 -> 406 ;
407 [label="gini = 0.0\nsamples = 3\nvalue = [0, 3, 0]"] ;
405 -> 407 ;
408 [label="gini = 0.0\nsamples = 9\nvalue = [0, 9, 0]"] ;
404 -> 408 ;
409 [label="x[8] <= 67.0\ngini = 0.611\nsamples = 6\nvalue = [1, 2, 3]"] ;
403 -> 409 ;
410 [label="gini = 0.0\nsamples = 1\nvalue = [1, 0, 0]"] ;
409 -> 410 ;
411 [label="x[3] <= 34.475\ngini = 0.48\nsamples = 5\nvalue = [0, 2, 3]"] ;
409 -> 411 ;
412 [label="gini = 0.0\nsamples = 2\nvalue = [0, 0, 2]"] ;
411 -> 412 ;
413 [label="x[4] <= 0.5\ngini = 0.444\nsamples = 3\nvalue = [0, 2, 1]"] ;
411 -> 413 ;
414 [label="gini = 0.0\nsamples = 2\nvalue = [0, 2, 0]"] ;
413 -> 414 ;
415 [label="gini = 0.0\nsamples = 1\nvalue = [0, 0, 1]"] ;
413 -> 415 ;
416 [label="gini = 0.0\nsamples = 2\nvalue = [0, 0, 2]"] ;
402 -> 416 ;
417 [label="gini = 0.0\nsamples = 2\nvalue = [2, 0, 0]"] ;
401 -> 417 ;
418 [label="x[6] <= 192.8\ngini = 0.54\nsamples = 21\nvalue = [5, 3, 13]"] ;
400 -> 418 ;
419 [label="x[20] <= 0.5\ngini = 0.612\nsamples = 7\nvalue = [3, 3, 1]"] ;
418 -> 419 ;
420 [label="x[0] <= 40.0\ngini = 0.56\nsamples = 5\nvalue = [3, 1, 1]"] ;
419 -> 420 ;
421 [label="x[8] <= 67.0\ngini = 0.5\nsamples = 2\nvalue = [0, 1, 1]"] ;
420 -> 421 ;
422 [label="gini = 0.0\nsamples = 1\nvalue = [0, 0, 1]"] ;
421 -> 422 ;
423 [label="gini = 0.0\nsamples = 1\nvalue = [0, 1, 0]"] ;
421 -> 423 ;
424 [label="gini = 0.0\nsamples = 3\nvalue = [3, 0, 0]"] ;
420 -> 424 ;
425 [label="gini = 0.0\nsamples = 2\nvalue = [0, 2, 0]"] ;
419 -> 425 ;
426 [label="x[10] <= 0.5\ngini = 0.245\nsamples = 14\nvalue = [2, 0, 12]"] ;
418 -> 426 ;
427 [label="x[4] <= 0.5\ngini = 0.142\nsamples = 13\nvalue = [1, 0, 12]"] ;
426 -> 427 ;
428 [label="gini = 0.0\nsamples = 10\nvalue = [0, 0, 10]"] ;
427 -> 428 ;
429 [label="x[12] <= 175.0\ngini = 0.444\nsamples = 3\nvalue = [1, 0, 2]"] ;
427 -> 429 ;
430 [label="gini = 0.0\nsamples = 2\nvalue = [0, 0, 2]"] ;
429 -> 430 ;
431 [label="gini = 0.0\nsamples = 1\nvalue = [1, 0, 0]"] ;
429 -> 431 ;
432 [label="gini = 0.0\nsamples = 1\nvalue = [1, 0, 0]"] ;
426 -> 432 ;
433 [label="x[8] <= 71.5\ngini = 0.56\nsamples = 55\nvalue = [11, 33, 11]"] ;
399 -> 433 ;
434 [label="x[6] <= 200.2\ngini = 0.529\nsamples = 52\nvalue = [11, 33, 8]"] ;
433 -> 434 ;
435 [label="x[23] <= 0.5\ngini = 0.633\nsamples = 16\nvalue = [7, 6, 3]"] ;
434 -> 435 ;
436 [label="x[8] <= 66.5\ngini = 0.512\nsamples = 11\nvalue = [7, 3, 1]"] ;
435 -> 436 ;
437 [label="x[6] <= 197.15\ngini = 0.48\nsamples = 5\nvalue = [2, 3, 0]"] ;
436 -> 437 ;
438 [label="gini = 0.0\nsamples = 3\nvalue = [0, 3, 0]"] ;
437 -> 438 ;
439 [label="gini = 0.0\nsamples = 2\nvalue = [2, 0, 0]"] ;
437 -> 439 ;
440 [label="x[14] <= 0.5\ngini = 0.278\nsamples = 6\nvalue = [5, 0, 1]"] ;
436 -> 440 ;
441 [label="gini = 0.0\nsamples = 5\nvalue = [5, 0, 0]"] ;
440 -> 441 ;
442 [label="gini = 0.0\nsamples = 1\nvalue = [0, 0, 1]"] ;
440 -> 442 ;
443 [label="x[12] <= 190.0\ngini = 0.48\nsamples = 5\nvalue = [0, 3, 2]"] ;
435 -> 443 ;
444 [label="x[1] <= 0.5\ngini = 0.444\nsamples = 3\nvalue = [0, 1, 2]"] ;
443 -> 444 ;
445 [label="gini = 0.0\nsamples = 1\nvalue = [0, 1, 0]"] ;
444 -> 445 ;
446 [label="gini = 0.0\nsamples = 2\nvalue = [0, 0, 2]"] ;
444 -> 446 ;
447 [label="gini = 0.0\nsamples = 2\nvalue = [0, 2, 0]"] ;
443 -> 447 ;
448 [label="x[12] <= 196.0\ngini = 0.406\nsamples = 36\nvalue = [4, 27, 5]"] ;
434 -> 448 ;
449 [label="x[6] <= 241.5\ngini = 0.291\nsamples = 30\nvalue = [2, 25, 3]"] ;
448 -> 449 ;
450 [label="x[11] <= 0.5\ngini = 0.147\nsamples = 25\nvalue = [0, 23, 2]"] ;
449 -> 450 ;
451 [label="gini = 0.0\nsamples = 20\nvalue = [0, 20, 0]"] ;
450 -> 451 ;
452 [label="x[8] <= 67.5\ngini = 0.48\nsamples = 5\nvalue = [0, 3, 2]"] ;
450 -> 452 ;
453 [label="gini = 0.0\nsamples = 2\nvalue = [0, 0, 2]"] ;
452 -> 453 ;
454 [label="gini = 0.0\nsamples = 3\nvalue = [0, 3, 0]"] ;
452 -> 454 ;
455 [label="x[0] <= 43.0\ngini = 0.64\nsamples = 5\nvalue = [2, 2, 1]"] ;
449 -> 455 ;
456 [label="x[12] <= 192.5\ngini = 0.444\nsamples = 3\nvalue = [2, 0, 1]"] ;
455 -> 456 ;
457 [label="gini = 0.0\nsamples = 2\nvalue = [2, 0, 0]"] ;
456 -> 457 ;
458 [label="gini = 0.0\nsamples = 1\nvalue = [0, 0, 1]"] ;
456 -> 458 ;
459 [label="gini = 0.0\nsamples = 2\nvalue = [0, 2, 0]"] ;
455 -> 459 ;
460 [label="x[8] <= 66.5\ngini = 0.667\nsamples = 6\nvalue = [2, 2, 2]"] ;
448 -> 460 ;
461 [label="x[0] <= 49.0\ngini = 0.5\nsamples = 4\nvalue = [2, 2, 0]"] ;
460 -> 461 ;
462 [label="gini = 0.0\nsamples = 1\nvalue = [0, 1, 0]"] ;
461 -> 462 ;
463 [label="x[12] <= 197.5\ngini = 0.444\nsamples = 3\nvalue = [2, 1, 0]"] ;
461 -> 463 ;
464 [label="gini = 0.0\nsamples = 1\nvalue = [0, 1, 0]"] ;
463 -> 464 ;
465 [label="gini = 0.0\nsamples = 2\nvalue = [2, 0, 0]"] ;
463 -> 465 ;
466 [label="gini = 0.0\nsamples = 2\nvalue = [0, 0, 2]"] ;
460 -> 466 ;
467 [label="gini = 0.0\nsamples = 3\nvalue = [0, 0, 3]"] ;
433 -> 467 ;
468 [label="x[6] <= 241.4\ngini = 0.633\nsamples = 379\nvalue = [73, 169, 137]"] ;
260 -> 468 ;
469 [label="x[24] <= 0.5\ngini = 0.635\nsamples = 322\nvalue = [61, 135, 126]"] ;
468 -> 469 ;
470 [label="x[8] <= 86.5\ngini = 0.637\nsamples = 205\nvalue = [42, 71, 92]"] ;
469 -> 470 ;
471 [label="x[6] <= 233.8\ngini = 0.626\nsamples = 169\nvalue = [29.0, 65.0, 75.0]"] ;
470 -> 471 ;
472 [label="x[8] <= 79.5\ngini = 0.626\nsamples = 159\nvalue = [27, 65, 67]"] ;
471 -> 472 ;
473 [label="x[6] <= 194.3\ngini = 0.611\nsamples = 82\nvalue = [15, 25, 42]"] ;
472 -> 473 ;
474 [label="x[3] <= 17.185\ngini = 0.52\nsamples = 42\nvalue = [6.0, 9.0, 27.0]"] ;
473 -> 474 ;
475 [label="x[2] <= 0.5\ngini = 0.444\nsamples = 6\nvalue = [0, 4, 2]"] ;
474 -> 475 ;
476 [label="gini = 0.0\nsamples = 4\nvalue = [0, 4, 0]"] ;
475 -> 476 ;
477 [label="gini = 0.0\nsamples = 2\nvalue = [0, 0, 2]"] ;
475 -> 477 ;
478 [label="x[7] <= 90.5\ngini = 0.471\nsamples = 36\nvalue = [6, 5, 25]"] ;
474 -> 478 ;
479 [label="x[12] <= 137.0\ngini = 0.625\nsamples = 4\nvalue = [1, 2, 1]"] ;
478 -> 479 ;
480 [label="x[17] <= 0.5\ngini = 0.5\nsamples = 2\nvalue = [1, 0, 1]"] ;
479 -> 480 ;
481 [label="gini = 0.0\nsamples = 1\nvalue = [1, 0, 0]"] ;
480 -> 481 ;
482 [label="gini = 0.0\nsamples = 1\nvalue = [0, 0, 1]"] ;
480 -> 482 ;
483 [label="gini = 0.0\nsamples = 2\nvalue = [0, 2, 0]"] ;
479 -> 483 ;
484 [label="x[12] <= 190.5\ngini = 0.404\nsamples = 32\nvalue = [5, 3, 24]"] ;
478 -> 484 ;
485 [label="x[8] <= 75.5\ngini = 0.37\nsamples = 31\nvalue = [5, 2, 24]"] ;
484 -> 485 ;
486 [label="gini = 0.0\nsamples = 9\nvalue = [0, 0, 9]"] ;
485 -> 486 ;
487 [label="x[23] <= 0.5\ngini = 0.475\nsamples = 22\nvalue = [5.0, 2.0, 15.0]"] ;
485 -> 487 ;
488 [label="x[21] <= 0.5\ngini = 0.611\nsamples = 12\nvalue = [4, 2, 6]"] ;
487 -> 488 ;
489 [label="x[12] <= 155.0\ngini = 0.48\nsamples = 10\nvalue = [4, 0, 6]"] ;
488 -> 489 ;
490 [label="x[3] <= 21.205\ngini = 0.444\nsamples = 6\nvalue = [4, 0, 2]"] ;
489 -> 490 ;
491 [label="gini = 0.0\nsamples = 2\nvalue = [0, 0, 2]"] ;
490 -> 491 ;
492 [label="gini = 0.0\nsamples = 4\nvalue = [4, 0, 0]"] ;
490 -> 492 ;
493 [label="gini = 0.0\nsamples = 4\nvalue = [0, 0, 4]"] ;
489 -> 493 ;
494 [label="gini = 0.0\nsamples = 2\nvalue = [0, 2, 0]"] ;
488 -> 494 ;
495 [label="x[19] <= 0.5\ngini = 0.18\nsamples = 10\nvalue = [1, 0, 9]"] ;
487 -> 495 ;
496 [label="gini = 0.0\nsamples = 7\nvalue = [0, 0, 7]"] ;
495 -> 496 ;
497 [label="x[3] <= 25.865\ngini = 0.444\nsamples = 3\nvalue = [1, 0, 2]"] ;
495 -> 497 ;
498 [label="gini = 0.0\nsamples = 2\nvalue = [0, 0, 2]"] ;
497 -> 498 ;
499 [label="gini = 0.0\nsamples = 1\nvalue = [1, 0, 0]"] ;
497 -> 499 ;
500 [label="gini = 0.0\nsamples = 1\nvalue = [0, 1, 0]"] ;
484 -> 500 ;
501 [label="x[3] <= 36.44\ngini = 0.649\nsamples = 40\nvalue = [9, 16, 15]"] ;
473 -> 501 ;
502 [label="x[8] <= 77.5\ngini = 0.637\nsamples = 33\nvalue = [7, 11, 15]"] ;
501 -> 502 ;
503 [label="x[14] <= 0.5\ngini = 0.66\nsamples = 20\nvalue = [6, 8, 6]"] ;
502 -> 503 ;
504 [label="x[13] <= 0.5\ngini = 0.32\nsamples = 5\nvalue = [1, 4, 0]"] ;
503 -> 504 ;
505 [label="gini = 0.0\nsamples = 1\nvalue = [1, 0, 0]"] ;
504 -> 505 ;
506 [label="gini = 0.0\nsamples = 4\nvalue = [0, 4, 0]"] ;
504 -> 506 ;
507 [label="x[3] <= 25.46\ngini = 0.658\nsamples = 15\nvalue = [5, 4, 6]"] ;
503 -> 507 ;
508 [label="x[3] <= 17.08\ngini = 0.5\nsamples = 6\nvalue = [1, 1, 4]"] ;
507 -> 508 ;
509 [label="x[13] <= 0.5\ngini = 0.5\nsamples = 2\nvalue = [1, 1, 0]"] ;
508 -> 509 ;
510 [label="gini = 0.0\nsamples = 1\nvalue = [0, 1, 0]"] ;
509 -> 510 ;
511 [label="gini = 0.0\nsamples = 1\nvalue = [1, 0, 0]"] ;
509 -> 511 ;
512 [label="gini = 0.0\nsamples = 4\nvalue = [0, 0, 4]"] ;
508 -> 512 ;
513 [label="x[19] <= 0.5\ngini = 0.642\nsamples = 9\nvalue = [4, 3, 2]"] ;
507 -> 513 ;
514 [label="x[21] <= 0.5\ngini = 0.56\nsamples = 5\nvalue = [1, 3, 1]"] ;
513 -> 514 ;
515 [label="gini = 0.0\nsamples = 3\nvalue = [0, 3, 0]"] ;
514 -> 515 ;
516 [label="x[0] <= 52.0\ngini = 0.5\nsamples = 2\nvalue = [1, 0, 1]"] ;
514 -> 516 ;
517 [label="gini = 0.0\nsamples = 1\nvalue = [1, 0, 0]"] ;
516 -> 517 ;
518 [label="gini = 0.0\nsamples = 1\nvalue = [0, 0, 1]"] ;
516 -> 518 ;
519 [label="x[7] <= 105.5\ngini = 0.375\nsamples = 4\nvalue = [3, 0, 1]"] ;
513 -> 519 ;
520 [label="gini = 0.0\nsamples = 3\nvalue = [3, 0, 0]"] ;
519 -> 520 ;
521 [label="gini = 0.0\nsamples = 1\nvalue = [0, 0, 1]"] ;
519 -> 521 ;
522 [label="x[12] <= 122.5\ngini = 0.462\nsamples = 13\nvalue = [1, 3, 9]"] ;
502 -> 522 ;
523 [label="x[3] <= 26.2\ngini = 0.5\nsamples = 2\nvalue = [1, 1, 0]"] ;
522 -> 523 ;
524 [label="gini = 0.0\nsamples = 1\nvalue = [0, 1, 0]"] ;
523 -> 524 ;
525 [label="gini = 0.0\nsamples = 1\nvalue = [1, 0, 0]"] ;
523 -> 525 ;
526 [label="x[10] <= 0.5\ngini = 0.298\nsamples = 11\nvalue = [0, 2, 9]"] ;
522 -> 526 ;
527 [label="x[0] <= 26.5\ngini = 0.18\nsamples = 10\nvalue = [0, 1, 9]"] ;
526 -> 527 ;
528 [label="gini = 0.0\nsamples = 1\nvalue = [0, 1, 0]"] ;
527 -> 528 ;
529 [label="gini = 0.0\nsamples = 9\nvalue = [0, 0, 9]"] ;
527 -> 529 ;
530 [label="gini = 0.0\nsamples = 1\nvalue = [0, 1, 0]"] ;
526 -> 530 ;
531 [label="x[0] <= 33.0\ngini = 0.408\nsamples = 7\nvalue = [2, 5, 0]"] ;
501 -> 531 ;
532 [label="gini = 0.0\nsamples = 2\nvalue = [2, 0, 0]"] ;
531 -> 532 ;
533 [label="gini = 0.0\nsamples = 5\nvalue = [0, 5, 0]"] ;
531 -> 533 ;
534 [label="x[0] <= 75.5\ngini = 0.6\nsamples = 77\nvalue = [12.0, 40.0, 25.0]"] ;
472 -> 534 ;
535 [label="x[6] <= 183.45\ngini = 0.605\nsamples = 65\nvalue = [9, 31, 25]"] ;
534 -> 535 ;
536 [label="x[6] <= 153.9\ngini = 0.473\nsamples = 29\nvalue = [1, 19, 9]"] ;
535 -> 536 ;
537 [label="x[12] <= 117.5\ngini = 0.444\nsamples = 3\nvalue = [1, 0, 2]"] ;
536 -> 537 ;
538 [label="gini = 0.0\nsamples = 1\nvalue = [1, 0, 0]"] ;
537 -> 538 ;
539 [label="gini = 0.0\nsamples = 2\nvalue = [0, 0, 2]"] ;
537 -> 539 ;
540 [label="x[0] <= 48.0\ngini = 0.393\nsamples = 26\nvalue = [0, 19, 7]"] ;
536 -> 540 ;
541 [label="x[3] <= 26.23\ngini = 0.492\nsamples = 16\nvalue = [0, 9, 7]"] ;
540 -> 541 ;
542 [label="x[2] <= 0.5\ngini = 0.219\nsamples = 8\nvalue = [0, 7, 1]"] ;
541 -> 542 ;
543 [label="gini = 0.0\nsamples = 6\nvalue = [0, 6, 0]"] ;
542 -> 543 ;
544 [label="x[22] <= 0.5\ngini = 0.5\nsamples = 2\nvalue = [0, 1, 1]"] ;
542 -> 544 ;
545 [label="gini = 0.0\nsamples = 1\nvalue = [0, 1, 0]"] ;
544 -> 545 ;
546 [label="gini = 0.0\nsamples = 1\nvalue = [0, 0, 1]"] ;
544 -> 546 ;
547 [label="x[0] <= 39.5\ngini = 0.375\nsamples = 8\nvalue = [0, 2, 6]"] ;
541 -> 547 ;
548 [label="x[3] <= 37.58\ngini = 0.444\nsamples = 3\nvalue = [0, 2, 1]"] ;
547 -> 548 ;
549 [label="gini = 0.0\nsamples = 2\nvalue = [0, 2, 0]"] ;
548 -> 549 ;
550 [label="gini = 0.0\nsamples = 1\nvalue = [0, 0, 1]"] ;
548 -> 550 ;
551 [label="gini = 0.0\nsamples = 5\nvalue = [0, 0, 5]"] ;
547 -> 551 ;
552 [label="gini = 0.0\nsamples = 10\nvalue = [0, 10, 0]"] ;
540 -> 552 ;
553 [label="x[8] <= 82.0\ngini = 0.642\nsamples = 36\nvalue = [8, 12, 16]"] ;
535 -> 553 ;
554 [label="x[6] <= 188.4\ngini = 0.494\nsamples = 9\nvalue = [2, 6, 1]"] ;
553 -> 554 ;
555 [label="x[6] <= 185.85\ngini = 0.5\nsamples = 2\nvalue = [1, 0, 1]"] ;
554 -> 555 ;
556 [label="gini = 0.0\nsamples = 1\nvalue = [1, 0, 0]"] ;
555 -> 556 ;
557 [label="gini = 0.0\nsamples = 1\nvalue = [0, 0, 1]"] ;
555 -> 557 ;
558 [label="x[7] <= 109.5\ngini = 0.245\nsamples = 7\nvalue = [1, 6, 0]"] ;
554 -> 558 ;
559 [label="gini = 0.0\nsamples = 6\nvalue = [0, 6, 0]"] ;
558 -> 559 ;
560 [label="gini = 0.0\nsamples = 1\nvalue = [1, 0, 0]"] ;
558 -> 560 ;
561 [label="x[16] <= 0.5\ngini = 0.593\nsamples = 27\nvalue = [6, 6, 15]"] ;
553 -> 561 ;
562 [label="x[13] <= 0.5\ngini = 0.66\nsamples = 18\nvalue = [5, 6, 7]"] ;
561 -> 562 ;
563 [label="x[12] <= 149.5\ngini = 0.49\nsamples = 7\nvalue = [3, 0, 4]"] ;
562 -> 563 ;
564 [label="gini = 0.0\nsamples = 3\nvalue = [0, 0, 3]"] ;
563 -> 564 ;
565 [label="x[2] <= 0.5\ngini = 0.375\nsamples = 4\nvalue = [3, 0, 1]"] ;
563 -> 565 ;
566 [label="gini = 0.0\nsamples = 3\nvalue = [3, 0, 0]"] ;
565 -> 566 ;
567 [label="gini = 0.0\nsamples = 1\nvalue = [0, 0, 1]"] ;
565 -> 567 ;
568 [label="x[1] <= 0.5\ngini = 0.595\nsamples = 11\nvalue = [2, 6, 3]"] ;
562 -> 568 ;
569 [label="x[12] <= 181.5\ngini = 0.375\nsamples = 8\nvalue = [0, 6, 2]"] ;
568 -> 569 ;
570 [label="gini = 0.0\nsamples = 6\nvalue = [0, 6, 0]"] ;
569 -> 570 ;
571 [label="gini = 0.0\nsamples = 2\nvalue = [0, 0, 2]"] ;
569 -> 571 ;
572 [label="x[0] <= 41.5\ngini = 0.444\nsamples = 3\nvalue = [2, 0, 1]"] ;
568 -> 572 ;
573 [label="gini = 0.0\nsamples = 2\nvalue = [2, 0, 0]"] ;
572 -> 573 ;
574 [label="gini = 0.0\nsamples = 1\nvalue = [0, 0, 1]"] ;
572 -> 574 ;
575 [label="x[6] <= 232.15\ngini = 0.198\nsamples = 9\nvalue = [1, 0, 8]"] ;
561 -> 575 ;
576 [label="gini = 0.0\nsamples = 8\nvalue = [0, 0, 8]"] ;
575 -> 576 ;
577 [label="gini = 0.0\nsamples = 1\nvalue = [1, 0, 0]"] ;
575 -> 577 ;
578 [label="x[12] <= 154.5\ngini = 0.375\nsamples = 12\nvalue = [3, 9, 0]"] ;
534 -> 578 ;
579 [label="x[12] <= 107.5\ngini = 0.198\nsamples = 9\nvalue = [1, 8, 0]"] ;
578 -> 579 ;
580 [label="gini = 0.0\nsamples = 1\nvalue = [1, 0, 0]"] ;
579 -> 580 ;
581 [label="gini = 0.0\nsamples = 8\nvalue = [0, 8, 0]"] ;
579 -> 581 ;
582 [label="x[22] <= 0.5\ngini = 0.444\nsamples = 3\nvalue = [2, 1, 0]"] ;
578 -> 582 ;
583 [label="gini = 0.0\nsamples = 2\nvalue = [2, 0, 0]"] ;
582 -> 583 ;
584 [label="gini = 0.0\nsamples = 1\nvalue = [0, 1, 0]"] ;
582 -> 584 ;
585 [label="x[3] <= 37.68\ngini = 0.32\nsamples = 10\nvalue = [2, 0, 8]"] ;
471 -> 585 ;
586 [label="x[7] <= 104.5\ngini = 0.198\nsamples = 9\nvalue = [1, 0, 8]"] ;
585 -> 586 ;
587 [label="gini = 0.0\nsamples = 7\nvalue = [0, 0, 7]"] ;
586 -> 587 ;
588 [label="x[1] <= 0.5\ngini = 0.5\nsamples = 2\nvalue = [1, 0, 1]"] ;
586 -> 588 ;
589 [label="gini = 0.0\nsamples = 1\nvalue = [0, 0, 1]"] ;
588 -> 589 ;
590 [label="gini = 0.0\nsamples = 1\nvalue = [1, 0, 0]"] ;
588 -> 590 ;
591 [label="gini = 0.0\nsamples = 1\nvalue = [1, 0, 0]"] ;
585 -> 591 ;
592 [label="x[0] <= 64.0\ngini = 0.619\nsamples = 36\nvalue = [13, 6, 17]"] ;
470 -> 592 ;
593 [label="x[12] <= 156.5\ngini = 0.54\nsamples = 21\nvalue = [5, 3, 13]"] ;
592 -> 593 ;
594 [label="x[12] <= 126.0\ngini = 0.298\nsamples = 11\nvalue = [2, 0, 9]"] ;
593 -> 594 ;
595 [label="x[12] <= 118.0\ngini = 0.48\nsamples = 5\nvalue = [2, 0, 3]"] ;
594 -> 595 ;
596 [label="gini = 0.0\nsamples = 3\nvalue = [0, 0, 3]"] ;
595 -> 596 ;
597 [label="gini = 0.0\nsamples = 2\nvalue = [2, 0, 0]"] ;
595 -> 597 ;
598 [label="gini = 0.0\nsamples = 6\nvalue = [0, 0, 6]"] ;
594 -> 598 ;
599 [label="x[0] <= 55.5\ngini = 0.66\nsamples = 10\nvalue = [3, 3, 4]"] ;
593 -> 599 ;
600 [label="x[0] <= 51.0\ngini = 0.612\nsamples = 7\nvalue = [3, 3, 1]"] ;
599 -> 600 ;
601 [label="x[20] <= 0.5\ngini = 0.56\nsamples = 5\nvalue = [1, 3, 1]"] ;
600 -> 601 ;
602 [label="x[12] <= 194.5\ngini = 0.375\nsamples = 4\nvalue = [0, 3, 1]"] ;
601 -> 602 ;
603 [label="gini = 0.0\nsamples = 3\nvalue = [0, 3, 0]"] ;
602 -> 603 ;
604 [label="gini = 0.0\nsamples = 1\nvalue = [0, 0, 1]"] ;
602 -> 604 ;
605 [label="gini = 0.0\nsamples = 1\nvalue = [1, 0, 0]"] ;
601 -> 605 ;
606 [label="gini = 0.0\nsamples = 2\nvalue = [2, 0, 0]"] ;
600 -> 606 ;
607 [label="gini = 0.0\nsamples = 3\nvalue = [0, 0, 3]"] ;
599 -> 607 ;
608 [label="x[8] <= 88.5\ngini = 0.604\nsamples = 15\nvalue = [8, 3, 4]"] ;
592 -> 608 ;
609 [label="x[0] <= 82.5\ngini = 0.37\nsamples = 9\nvalue = [7, 1, 1]"] ;
608 -> 609 ;
610 [label="x[11] <= 0.5\ngini = 0.219\nsamples = 8\nvalue = [7, 0, 1]"] ;
609 -> 610 ;
611 [label="gini = 0.0\nsamples = 6\nvalue = [6, 0, 0]"] ;
610 -> 611 ;
612 [label="x[6] <= 200.75\ngini = 0.5\nsamples = 2\nvalue = [1, 0, 1]"] ;
610 -> 612 ;
613 [label="gini = 0.0\nsamples = 1\nvalue = [0, 0, 1]"] ;
612 -> 613 ;
614 [label="gini = 0.0\nsamples = 1\nvalue = [1, 0, 0]"] ;
612 -> 614 ;
615 [label="gini = 0.0\nsamples = 1\nvalue = [0, 1, 0]"] ;
609 -> 615 ;
616 [label="x[3] <= 24.655\ngini = 0.611\nsamples = 6\nvalue = [1, 2, 3]"] ;
608 -> 616 ;
617 [label="gini = 0.0\nsamples = 2\nvalue = [0, 2, 0]"] ;
616 -> 617 ;
618 [label="x[12] <= 148.0\ngini = 0.375\nsamples = 4\nvalue = [1, 0, 3]"] ;
616 -> 618 ;
619 [label="gini = 0.0\nsamples = 1\nvalue = [1, 0, 0]"] ;
618 -> 619 ;
620 [label="gini = 0.0\nsamples = 3\nvalue = [0, 0, 3]"] ;
618 -> 620 ;
621 [label="x[0] <= 51.5\ngini = 0.59\nsamples = 117\nvalue = [19, 64, 34]"] ;
469 -> 621 ;
622 [label="x[18] <= 0.5\ngini = 0.636\nsamples = 66\nvalue = [13, 29, 24]"] ;
621 -> 622 ;
623 [label="x[22] <= 0.5\ngini = 0.627\nsamples = 51\nvalue = [11, 25, 15]"] ;
622 -> 623 ;
624 [label="x[3] <= 36.12\ngini = 0.662\nsamples = 36\nvalue = [10, 13, 13]"] ;
623 -> 624 ;
625 [label="x[3] <= 32.94\ngini = 0.661\nsamples = 33\nvalue = [10, 10, 13]"] ;
624 -> 625 ;
626 [label="x[11] <= 0.5\ngini = 0.66\nsamples = 26\nvalue = [10, 9, 7]"] ;
625 -> 626 ;
627 [label="x[12] <= 114.0\ngini = 0.64\nsamples = 22\nvalue = [10, 5, 7]"] ;
626 -> 627 ;
628 [label="gini = 0.0\nsamples = 2\nvalue = [0, 2, 0]"] ;
627 -> 628 ;
629 [label="x[6] <= 218.35\ngini = 0.605\nsamples = 20\nvalue = [10, 3, 7]"] ;
627 -> 629 ;
630 [label="x[7] <= 105.0\ngini = 0.547\nsamples = 17\nvalue = [9, 1, 7]"] ;
629 -> 630 ;
631 [label="x[6] <= 176.45\ngini = 0.397\nsamples = 11\nvalue = [8, 0, 3]"] ;
630 -> 631 ;
632 [label="x[0] <= 41.0\ngini = 0.48\nsamples = 5\nvalue = [2, 0, 3]"] ;
631 -> 632 ;
633 [label="x[0] <= 32.5\ngini = 0.444\nsamples = 3\nvalue = [2, 0, 1]"] ;
632 -> 633 ;
634 [label="gini = 0.0\nsamples = 1\nvalue = [0, 0, 1]"] ;
633 -> 634 ;
635 [label="gini = 0.0\nsamples = 2\nvalue = [2, 0, 0]"] ;
633 -> 635 ;
636 [label="gini = 0.0\nsamples = 2\nvalue = [0, 0, 2]"] ;
632 -> 636 ;
637 [label="gini = 0.0\nsamples = 6\nvalue = [6, 0, 0]"] ;
631 -> 637 ;
638 [label="x[12] <= 180.0\ngini = 0.5\nsamples = 6\nvalue = [1, 1, 4]"] ;
630 -> 638 ;
639 [label="gini = 0.0\nsamples = 4\nvalue = [0, 0, 4]"] ;
638 -> 639 ;
640 [label="x[19] <= 0.5\ngini = 0.5\nsamples = 2\nvalue = [1, 1, 0]"] ;
638 -> 640 ;
641 [label="gini = 0.0\nsamples = 1\nvalue = [0, 1, 0]"] ;
640 -> 641 ;
642 [label="gini = 0.0\nsamples = 1\nvalue = [1, 0, 0]"] ;
640 -> 642 ;
643 [label="x[6] <= 233.85\ngini = 0.444\nsamples = 3\nvalue = [1, 2, 0]"] ;
629 -> 643 ;
644 [label="gini = 0.0\nsamples = 2\nvalue = [0, 2, 0]"] ;
643 -> 644 ;
645 [label="gini = 0.0\nsamples = 1\nvalue = [1, 0, 0]"] ;
643 -> 645 ;
646 [label="gini = 0.0\nsamples = 4\nvalue = [0, 4, 0]"] ;
626 -> 646 ;
647 [label="x[6] <= 162.2\ngini = 0.245\nsamples = 7\nvalue = [0, 1, 6]"] ;
625 -> 647 ;
648 [label="gini = 0.0\nsamples = 1\nvalue = [0, 1, 0]"] ;
647 -> 648 ;
649 [label="gini = 0.0\nsamples = 6\nvalue = [0, 0, 6]"] ;
647 -> 649 ;
650 [label="gini = 0.0\nsamples = 3\nvalue = [0, 3, 0]"] ;
624 -> 650 ;
651 [label="x[1] <= 0.5\ngini = 0.338\nsamples = 15\nvalue = [1, 12, 2]"] ;
623 -> 651 ;
652 [label="x[12] <= 111.5\ngini = 0.142\nsamples = 13\nvalue = [0, 12, 1]"] ;
651 -> 652 ;
653 [label="x[12] <= 105.0\ngini = 0.5\nsamples = 2\nvalue = [0, 1, 1]"] ;
652 -> 653 ;
654 [label="gini = 0.0\nsamples = 1\nvalue = [0, 1, 0]"] ;
653 -> 654 ;
655 [label="gini = 0.0\nsamples = 1\nvalue = [0, 0, 1]"] ;
653 -> 655 ;
656 [label="gini = 0.0\nsamples = 11\nvalue = [0, 11, 0]"] ;
652 -> 656 ;
657 [label="x[17] <= 0.5\ngini = 0.5\nsamples = 2\nvalue = [1, 0, 1]"] ;
651 -> 657 ;
658 [label="gini = 0.0\nsamples = 1\nvalue = [0, 0, 1]"] ;
657 -> 658 ;
659 [label="gini = 0.0\nsamples = 1\nvalue = [1, 0, 0]"] ;
657 -> 659 ;
660 [label="x[14] <= 0.5\ngini = 0.551\nsamples = 15\nvalue = [2, 4, 9]"] ;
622 -> 660 ;
661 [label="x[16] <= 0.5\ngini = 0.375\nsamples = 4\nvalue = [1, 3, 0]"] ;
660 -> 661 ;
662 [label="gini = 0.0\nsamples = 3\nvalue = [0, 3, 0]"] ;
661 -> 662 ;
663 [label="gini = 0.0\nsamples = 1\nvalue = [1, 0, 0]"] ;
661 -> 663 ;
664 [label="x[7] <= 92.0\ngini = 0.314\nsamples = 11\nvalue = [1, 1, 9]"] ;
660 -> 664 ;
665 [label="gini = 0.0\nsamples = 1\nvalue = [0, 1, 0]"] ;
664 -> 665 ;
666 [label="x[0] <= 21.0\ngini = 0.18\nsamples = 10\nvalue = [1, 0, 9]"] ;
664 -> 666 ;
667 [label="gini = 0.0\nsamples = 1\nvalue = [1, 0, 0]"] ;
666 -> 667 ;
668 [label="gini = 0.0\nsamples = 9\nvalue = [0, 0, 9]"] ;
666 -> 668 ;
669 [label="x[0] <= 80.5\ngini = 0.477\nsamples = 51\nvalue = [6, 35, 10]"] ;
621 -> 669 ;
670 [label="x[0] <= 70.5\ngini = 0.531\nsamples = 40\nvalue = [5, 25, 10]"] ;
669 -> 670 ;
671 [label="x[8] <= 77.5\ngini = 0.39\nsamples = 25\nvalue = [2, 19, 4]"] ;
670 -> 671 ;
672 [label="x[12] <= 153.0\ngini = 0.612\nsamples = 7\nvalue = [1, 3, 3]"] ;
671 -> 672 ;
673 [label="gini = 0.0\nsamples = 3\nvalue = [0, 0, 3]"] ;
672 -> 673 ;
674 [label="x[22] <= 0.5\ngini = 0.375\nsamples = 4\nvalue = [1, 3, 0]"] ;
672 -> 674 ;
675 [label="gini = 0.0\nsamples = 3\nvalue = [0, 3, 0]"] ;
674 -> 675 ;
676 [label="gini = 0.0\nsamples = 1\nvalue = [1, 0, 0]"] ;
674 -> 676 ;
677 [label="x[3] <= 37.95\ngini = 0.204\nsamples = 18\nvalue = [1, 16, 1]"] ;
671 -> 677 ;
678 [label="x[21] <= 0.5\ngini = 0.111\nsamples = 17\nvalue = [0, 16, 1]"] ;
677 -> 678 ;
679 [label="gini = 0.0\nsamples = 14\nvalue = [0, 14, 0]"] ;
678 -> 679 ;
680 [label="x[16] <= 0.5\ngini = 0.444\nsamples = 3\nvalue = [0, 2, 1]"] ;
678 -> 680 ;
681 [label="gini = 0.0\nsamples = 2\nvalue = [0, 2, 0]"] ;
680 -> 681 ;
682 [label="gini = 0.0\nsamples = 1\nvalue = [0, 0, 1]"] ;
680 -> 682 ;
683 [label="gini = 0.0\nsamples = 1\nvalue = [1, 0, 0]"] ;
677 -> 683 ;
684 [label="x[7] <= 93.5\ngini = 0.64\nsamples = 15\nvalue = [3, 6, 6]"] ;
670 -> 684 ;
685 [label="x[0] <= 72.5\ngini = 0.375\nsamples = 4\nvalue = [3, 0, 1]"] ;
684 -> 685 ;
686 [label="gini = 0.0\nsamples = 1\nvalue = [0, 0, 1]"] ;
685 -> 686 ;
687 [label="gini = 0.0\nsamples = 3\nvalue = [3, 0, 0]"] ;
685 -> 687 ;
688 [label="x[12] <= 150.5\ngini = 0.496\nsamples = 11\nvalue = [0, 6, 5]"] ;
684 -> 688 ;
689 [label="x[7] <= 106.5\ngini = 0.408\nsamples = 7\nvalue = [0, 2, 5]"] ;
688 -> 689 ;
690 [label="gini = 0.0\nsamples = 4\nvalue = [0, 0, 4]"] ;
689 -> 690 ;
691 [label="x[19] <= 0.5\ngini = 0.444\nsamples = 3\nvalue = [0, 2, 1]"] ;
689 -> 691 ;
692 [label="gini = 0.0\nsamples = 2\nvalue = [0, 2, 0]"] ;
691 -> 692 ;
693 [label="gini = 0.0\nsamples = 1\nvalue = [0, 0, 1]"] ;
691 -> 693 ;
694 [label="gini = 0.0\nsamples = 4\nvalue = [0, 4, 0]"] ;
688 -> 694 ;
695 [label="x[10] <= 0.5\ngini = 0.165\nsamples = 11\nvalue = [1, 10, 0]"] ;
669 -> 695 ;
696 [label="gini = 0.0\nsamples = 10\nvalue = [0, 10, 0]"] ;
695 -> 696 ;
697 [label="gini = 0.0\nsamples = 1\nvalue = [1, 0, 0]"] ;
695 -> 697 ;
698 [label="x[8] <= 78.0\ngini = 0.563\nsamples = 57\nvalue = [12, 34, 11]"] ;
468 -> 698 ;
699 [label="x[2] <= 0.5\ngini = 0.667\nsamples = 18\nvalue = [6, 6, 6]"] ;
698 -> 699 ;
700 [label="x[0] <= 70.5\ngini = 0.449\nsamples = 7\nvalue = [5, 1, 1]"] ;
699 -> 700 ;
701 [label="x[7] <= 93.5\ngini = 0.278\nsamples = 6\nvalue = [5, 0, 1]"] ;
700 -> 701 ;
702 [label="gini = 0.0\nsamples = 1\nvalue = [0, 0, 1]"] ;
701 -> 702 ;
703 [label="gini = 0.0\nsamples = 5\nvalue = [5, 0, 0]"] ;
701 -> 703 ;
704 [label="gini = 0.0\nsamples = 1\nvalue = [0, 1, 0]"] ;
700 -> 704 ;
705 [label="x[3] <= 31.95\ngini = 0.579\nsamples = 11\nvalue = [1, 5, 5]"] ;
699 -> 705 ;
706 [label="x[18] <= 0.5\ngini = 0.531\nsamples = 8\nvalue = [1, 5, 2]"] ;
705 -> 706 ;
707 [label="x[7] <= 93.5\ngini = 0.278\nsamples = 6\nvalue = [1, 5, 0]"] ;
706 -> 707 ;
708 [label="gini = 0.0\nsamples = 1\nvalue = [1, 0, 0]"] ;
707 -> 708 ;
709 [label="gini = 0.0\nsamples = 5\nvalue = [0, 5, 0]"] ;
707 -> 709 ;
710 [label="gini = 0.0\nsamples = 2\nvalue = [0, 0, 2]"] ;
706 -> 710 ;
711 [label="gini = 0.0\nsamples = 3\nvalue = [0, 0, 3]"] ;
705 -> 711 ;
712 [label="x[6] <= 245.55\ngini = 0.444\nsamples = 39\nvalue = [6, 28, 5]"] ;
698 -> 712 ;
713 [label="gini = 0.0\nsamples = 10\nvalue = [0, 10, 0]"] ;
712 -> 713 ;
714 [label="x[22] <= 0.5\ngini = 0.542\nsamples = 29\nvalue = [6, 18, 5]"] ;
712 -> 714 ;
715 [label="x[13] <= 0.5\ngini = 0.401\nsamples = 18\nvalue = [5, 13, 0]"] ;
714 -> 715 ;
716 [label="gini = 0.0\nsamples = 7\nvalue = [0, 7, 0]"] ;
715 -> 716 ;
717 [label="x[3] <= 32.46\ngini = 0.496\nsamples = 11\nvalue = [5, 6, 0]"] ;
715 -> 717 ;
718 [label="x[6] <= 251.1\ngini = 0.469\nsamples = 8\nvalue = [5, 3, 0]"] ;
717 -> 718 ;
719 [label="gini = 0.0\nsamples = 4\nvalue = [4, 0, 0]"] ;
718 -> 719 ;
720 [label="x[20] <= 0.5\ngini = 0.375\nsamples = 4\nvalue = [1, 3, 0]"] ;
718 -> 720 ;
721 [label="gini = 0.0\nsamples = 3\nvalue = [0, 3, 0]"] ;
720 -> 721 ;
722 [label="gini = 0.0\nsamples = 1\nvalue = [1, 0, 0]"] ;
720 -> 722 ;
723 [label="gini = 0.0\nsamples = 3\nvalue = [0, 3, 0]"] ;
717 -> 723 ;
724 [label="x[12] <= 121.5\ngini = 0.579\nsamples = 11\nvalue = [1, 5, 5]"] ;
714 -> 724 ;
725 [label="gini = 0.0\nsamples = 4\nvalue = [0, 4, 0]"] ;
724 -> 725 ;
726 [label="x[13] <= 0.5\ngini = 0.449\nsamples = 7\nvalue = [1, 1, 5]"] ;
724 -> 726 ;
727 [label="x[3] <= 16.62\ngini = 0.278\nsamples = 6\nvalue = [0, 1, 5]"] ;
726 -> 727 ;
728 [label="gini = 0.0\nsamples = 1\nvalue = [0, 1, 0]"] ;
727 -> 728 ;
729 [label="gini = 0.0\nsamples = 5\nvalue = [0, 0, 5]"] ;
727 -> 729 ;
730 [label="gini = 0.0\nsamples = 1\nvalue = [1, 0, 0]"] ;
726 -> 730 ;
731 [label="x[6] <= 173.85\ngini = 0.606\nsamples = 932\nvalue = [198.0, 497.0, 237.0]"] ;
259 -> 731 ;
732 [label="x[7] <= 99.5\ngini = 0.576\nsamples = 189\nvalue = [46, 109, 34]"] ;
731 -> 732 ;
733 [label="x[6] <= 168.8\ngini = 0.606\nsamples = 95\nvalue = [32, 48, 15]"] ;
732 -> 733 ;
734 [label="x[0] <= 43.5\ngini = 0.559\nsamples = 73\nvalue = [20, 43, 10]"] ;
733 -> 734 ;
735 [label="x[18] <= 0.5\ngini = 0.328\nsamples = 26\nvalue = [3, 21, 2]"] ;
734 -> 735 ;
736 [label="gini = 0.0\nsamples = 16\nvalue = [0, 16, 0]"] ;
735 -> 736 ;
737 [label="x[6] <= 160.75\ngini = 0.62\nsamples = 10\nvalue = [3, 5, 2]"] ;
735 -> 737 ;
738 [label="x[24] <= 0.5\ngini = 0.375\nsamples = 4\nvalue = [3, 0, 1]"] ;
737 -> 738 ;
739 [label="gini = 0.0\nsamples = 1\nvalue = [0, 0, 1]"] ;
738 -> 739 ;
740 [label="gini = 0.0\nsamples = 3\nvalue = [3, 0, 0]"] ;
738 -> 740 ;
741 [label="x[1] <= 0.5\ngini = 0.278\nsamples = 6\nvalue = [0, 5, 1]"] ;
737 -> 741 ;
742 [label="gini = 0.0\nsamples = 5\nvalue = [0, 5, 0]"] ;
741 -> 742 ;
743 [label="gini = 0.0\nsamples = 1\nvalue = [0, 0, 1]"] ;
741 -> 743 ;
744 [label="x[0] <= 50.0\ngini = 0.621\nsamples = 47\nvalue = [17, 22, 8]"] ;
734 -> 744 ;
745 [label="gini = 0.0\nsamples = 3\nvalue = [0, 0, 3]"] ;
744 -> 745 ;
746 [label="x[16] <= 0.5\ngini = 0.588\nsamples = 44\nvalue = [17, 22, 5]"] ;
744 -> 746 ;
747 [label="x[3] <= 31.77\ngini = 0.49\nsamples = 29\nvalue = [8, 19, 2]"] ;
746 -> 747 ;
748 [label="x[20] <= 0.5\ngini = 0.368\nsamples = 22\nvalue = [4, 17, 1]"] ;
747 -> 748 ;
749 [label="x[8] <= 123.0\ngini = 0.124\nsamples = 15\nvalue = [1, 14, 0]"] ;
748 -> 749 ;
750 [label="gini = 0.0\nsamples = 14\nvalue = [0, 14, 0]"] ;
749 -> 750 ;
751 [label="gini = 0.0\nsamples = 1\nvalue = [1, 0, 0]"] ;
749 -> 751 ;
752 [label="x[6] <= 157.75\ngini = 0.612\nsamples = 7\nvalue = [3, 3, 1]"] ;
748 -> 752 ;
753 [label="x[10] <= 0.5\ngini = 0.375\nsamples = 4\nvalue = [0, 3, 1]"] ;
752 -> 753 ;
754 [label="gini = 0.0\nsamples = 3\nvalue = [0, 3, 0]"] ;
753 -> 754 ;
755 [label="gini = 0.0\nsamples = 1\nvalue = [0, 0, 1]"] ;
753 -> 755 ;
756 [label="gini = 0.0\nsamples = 3\nvalue = [3, 0, 0]"] ;
752 -> 756 ;
757 [label="x[8] <= 113.0\ngini = 0.571\nsamples = 7\nvalue = [4, 2, 1]"] ;
747 -> 757 ;
758 [label="x[6] <= 161.95\ngini = 0.32\nsamples = 5\nvalue = [4, 1, 0]"] ;
757 -> 758 ;
759 [label="gini = 0.0\nsamples = 4\nvalue = [4, 0, 0]"] ;
758 -> 759 ;
760 [label="gini = 0.0\nsamples = 1\nvalue = [0, 1, 0]"] ;
758 -> 760 ;
761 [label="x[17] <= 0.5\ngini = 0.5\nsamples = 2\nvalue = [0, 1, 1]"] ;
757 -> 761 ;
762 [label="gini = 0.0\nsamples = 1\nvalue = [0, 1, 0]"] ;
761 -> 762 ;
763 [label="gini = 0.0\nsamples = 1\nvalue = [0, 0, 1]"] ;
761 -> 763 ;
764 [label="x[6] <= 160.8\ngini = 0.56\nsamples = 15\nvalue = [9, 3, 3]"] ;
746 -> 764 ;
765 [label="x[0] <= 88.5\ngini = 0.198\nsamples = 9\nvalue = [8, 0, 1]"] ;
764 -> 765 ;
766 [label="gini = 0.0\nsamples = 8\nvalue = [8, 0, 0]"] ;
765 -> 766 ;
767 [label="gini = 0.0\nsamples = 1\nvalue = [0, 0, 1]"] ;
765 -> 767 ;
768 [label="x[23] <= 0.5\ngini = 0.611\nsamples = 6\nvalue = [1, 3, 2]"] ;
764 -> 768 ;
769 [label="x[18] <= 0.5\ngini = 0.444\nsamples = 3\nvalue = [1, 0, 2]"] ;
768 -> 769 ;
770 [label="gini = 0.0\nsamples = 1\nvalue = [1, 0, 0]"] ;
769 -> 770 ;
771 [label="gini = 0.0\nsamples = 2\nvalue = [0, 0, 2]"] ;
769 -> 771 ;
772 [label="gini = 0.0\nsamples = 3\nvalue = [0, 3, 0]"] ;
768 -> 772 ;
773 [label="x[12] <= 173.5\ngini = 0.599\nsamples = 22\nvalue = [12, 5, 5]"] ;
733 -> 773 ;
774 [label="x[0] <= 60.5\ngini = 0.439\nsamples = 14\nvalue = [10, 3, 1]"] ;
773 -> 774 ;
775 [label="x[8] <= 127.0\ngini = 0.18\nsamples = 10\nvalue = [9, 1, 0]"] ;
774 -> 775 ;
776 [label="gini = 0.0\nsamples = 8\nvalue = [8, 0, 0]"] ;
775 -> 776 ;
777 [label="x[0] <= 42.5\ngini = 0.5\nsamples = 2\nvalue = [1, 1, 0]"] ;
775 -> 777 ;
778 [label="gini = 0.0\nsamples = 1\nvalue = [0, 1, 0]"] ;
777 -> 778 ;
779 [label="gini = 0.0\nsamples = 1\nvalue = [1, 0, 0]"] ;
777 -> 779 ;
780 [label="x[7] <= 95.5\ngini = 0.625\nsamples = 4\nvalue = [1, 2, 1]"] ;
774 -> 780 ;
781 [label="x[0] <= 73.5\ngini = 0.5\nsamples = 2\nvalue = [1, 0, 1]"] ;
780 -> 781 ;
782 [label="gini = 0.0\nsamples = 1\nvalue = [1, 0, 0]"] ;
781 -> 782 ;
783 [label="gini = 0.0\nsamples = 1\nvalue = [0, 0, 1]"] ;
781 -> 783 ;
784 [label="gini = 0.0\nsamples = 2\nvalue = [0, 2, 0]"] ;
780 -> 784 ;
785 [label="x[2] <= 0.5\ngini = 0.625\nsamples = 8\nvalue = [2, 2, 4]"] ;
773 -> 785 ;
786 [label="x[21] <= 0.5\ngini = 0.444\nsamples = 6\nvalue = [0, 2, 4]"] ;
785 -> 786 ;
787 [label="gini = 0.0\nsamples = 4\nvalue = [0, 0, 4]"] ;
786 -> 787 ;
788 [label="gini = 0.0\nsamples = 2\nvalue = [0, 2, 0]"] ;
786 -> 788 ;
789 [label="gini = 0.0\nsamples = 2\nvalue = [2, 0, 0]"] ;
785 -> 789 ;
790 [label="x[8] <= 109.5\ngini = 0.516\nsamples = 94\nvalue = [14, 61, 19]"] ;
732 -> 790 ;
791 [label="x[8] <= 106.5\ngini = 0.63\nsamples = 39\nvalue = [9, 19, 11]"] ;
790 -> 791 ;
792 [label="x[6] <= 162.3\ngini = 0.551\nsamples = 30\nvalue = [4, 18, 8]"] ;
791 -> 792 ;
793 [label="x[17] <= 0.5\ngini = 0.615\nsamples = 20\nvalue = [3, 9, 8]"] ;
792 -> 793 ;
794 [label="x[8] <= 90.5\ngini = 0.42\nsamples = 10\nvalue = [0, 3, 7]"] ;
793 -> 794 ;
795 [label="gini = 0.0\nsamples = 1\nvalue = [0, 1, 0]"] ;
794 -> 795 ;
796 [label="x[12] <= 183.5\ngini = 0.346\nsamples = 9\nvalue = [0, 2, 7]"] ;
794 -> 796 ;
797 [label="x[3] <= 23.13\ngini = 0.219\nsamples = 8\nvalue = [0, 1, 7]"] ;
796 -> 797 ;
798 [label="gini = 0.0\nsamples = 1\nvalue = [0, 1, 0]"] ;
797 -> 798 ;
799 [label="gini = 0.0\nsamples = 7\nvalue = [0, 0, 7]"] ;
797 -> 799 ;
800 [label="gini = 0.0\nsamples = 1\nvalue = [0, 1, 0]"] ;
796 -> 800 ;
801 [label="x[8] <= 94.0\ngini = 0.54\nsamples = 10\nvalue = [3, 6, 1]"] ;
793 -> 801 ;
802 [label="gini = 0.0\nsamples = 2\nvalue = [2, 0, 0]"] ;
801 -> 802 ;
803 [label="x[7] <= 109.5\ngini = 0.406\nsamples = 8\nvalue = [1, 6, 1]"] ;
801 -> 803 ;
804 [label="x[10] <= 0.5\ngini = 0.245\nsamples = 7\nvalue = [0, 6, 1]"] ;
803 -> 804 ;
805 [label="gini = 0.0\nsamples = 5\nvalue = [0, 5, 0]"] ;
804 -> 805 ;
806 [label="x[20] <= 0.5\ngini = 0.5\nsamples = 2\nvalue = [0, 1, 1]"] ;
804 -> 806 ;
807 [label="gini = 0.0\nsamples = 1\nvalue = [0, 1, 0]"] ;
806 -> 807 ;
808 [label="gini = 0.0\nsamples = 1\nvalue = [0, 0, 1]"] ;
806 -> 808 ;
809 [label="gini = 0.0\nsamples = 1\nvalue = [1, 0, 0]"] ;
803 -> 809 ;
810 [label="x[6] <= 172.05\ngini = 0.18\nsamples = 10\nvalue = [1, 9, 0]"] ;
792 -> 810 ;
811 [label="gini = 0.0\nsamples = 8\nvalue = [0, 8, 0]"] ;
810 -> 811 ;
812 [label="x[14] <= 0.5\ngini = 0.5\nsamples = 2\nvalue = [1, 1, 0]"] ;
810 -> 812 ;
813 [label="gini = 0.0\nsamples = 1\nvalue = [0, 1, 0]"] ;
812 -> 813 ;
814 [label="gini = 0.0\nsamples = 1\nvalue = [1, 0, 0]"] ;
812 -> 814 ;
815 [label="x[12] <= 151.5\ngini = 0.568\nsamples = 9\nvalue = [5, 1, 3]"] ;
791 -> 815 ;
816 [label="x[3] <= 27.005\ngini = 0.375\nsamples = 4\nvalue = [1, 0, 3]"] ;
815 -> 816 ;
817 [label="gini = 0.0\nsamples = 1\nvalue = [1, 0, 0]"] ;
816 -> 817 ;
818 [label="gini = 0.0\nsamples = 3\nvalue = [0, 0, 3]"] ;
816 -> 818 ;
819 [label="x[7] <= 107.5\ngini = 0.32\nsamples = 5\nvalue = [4, 1, 0]"] ;
815 -> 819 ;
820 [label="gini = 0.0\nsamples = 4\nvalue = [4, 0, 0]"] ;
819 -> 820 ;
821 [label="gini = 0.0\nsamples = 1\nvalue = [0, 1, 0]"] ;
819 -> 821 ;
822 [label="x[12] <= 174.5\ngini = 0.387\nsamples = 55\nvalue = [5, 42, 8]"] ;
790 -> 822 ;
823 [label="x[8] <= 118.5\ngini = 0.275\nsamples = 45\nvalue = [3, 38, 4]"] ;
822 -> 823 ;
824 [label="x[6] <= 151.8\ngini = 0.091\nsamples = 21\nvalue = [1, 20, 0]"] ;
823 -> 824 ;
825 [label="x[3] <= 22.1\ngini = 0.5\nsamples = 2\nvalue = [1, 1, 0]"] ;
824 -> 825 ;
826 [label="gini = 0.0\nsamples = 1\nvalue = [0, 1, 0]"] ;
825 -> 826 ;
827 [label="gini = 0.0\nsamples = 1\nvalue = [1, 0, 0]"] ;
825 -> 827 ;
828 [label="gini = 0.0\nsamples = 19\nvalue = [0, 19, 0]"] ;
824 -> 828 ;
829 [label="x[6] <= 168.35\ngini = 0.403\nsamples = 24\nvalue = [2, 18, 4]"] ;
823 -> 829 ;
830 [label="x[3] <= 18.4\ngini = 0.208\nsamples = 17\nvalue = [0, 15, 2]"] ;
829 -> 830 ;
831 [label="x[12] <= 130.5\ngini = 0.5\nsamples = 4\nvalue = [0, 2, 2]"] ;
830 -> 831 ;
832 [label="gini = 0.0\nsamples = 2\nvalue = [0, 0, 2]"] ;
831 -> 832 ;
833 [label="gini = 0.0\nsamples = 2\nvalue = [0, 2, 0]"] ;
831 -> 833 ;
834 [label="gini = 0.0\nsamples = 13\nvalue = [0, 13, 0]"] ;
830 -> 834 ;
835 [label="x[3] <= 22.265\ngini = 0.653\nsamples = 7\nvalue = [2, 3, 2]"] ;
829 -> 835 ;
836 [label="gini = 0.0\nsamples = 3\nvalue = [0, 3, 0]"] ;
835 -> 836 ;
837 [label="x[6] <= 168.85\ngini = 0.5\nsamples = 4\nvalue = [2, 0, 2]"] ;
835 -> 837 ;
838 [label="gini = 0.0\nsamples = 2\nvalue = [0, 0, 2]"] ;
837 -> 838 ;
839 [label="gini = 0.0\nsamples = 2\nvalue = [2, 0, 0]"] ;
837 -> 839 ;
840 [label="x[0] <= 45.5\ngini = 0.64\nsamples = 10\nvalue = [2, 4, 4]"] ;
822 -> 840 ;
841 [label="gini = 0.0\nsamples = 3\nvalue = [0, 0, 3]"] ;
840 -> 841 ;
842 [label="x[6] <= 153.3\ngini = 0.571\nsamples = 7\nvalue = [2, 4, 1]"] ;
840 -> 842 ;
843 [label="gini = 0.0\nsamples = 2\nvalue = [2, 0, 0]"] ;
842 -> 843 ;
844 [label="x[10] <= 0.5\ngini = 0.32\nsamples = 5\nvalue = [0, 4, 1]"] ;
842 -> 844 ;
845 [label="gini = 0.0\nsamples = 4\nvalue = [0, 4, 0]"] ;
844 -> 845 ;
846 [label="gini = 0.0\nsamples = 1\nvalue = [0, 0, 1]"] ;
844 -> 846 ;
847 [label="x[7] <= 100.5\ngini = 0.611\nsamples = 743\nvalue = [152.0, 388.0, 203.0]"] ;
731 -> 847 ;
848 [label="x[8] <= 109.5\ngini = 0.58\nsamples = 380\nvalue = [63.0, 215.0, 102.0]"] ;
847 -> 848 ;
849 [label="x[17] <= 0.5\ngini = 0.51\nsamples = 192\nvalue = [20, 124, 48]"] ;
848 -> 849 ;
850 [label="x[3] <= 24.84\ngini = 0.434\nsamples = 109\nvalue = [11, 79, 19]"] ;
849 -> 850 ;
851 [label="x[6] <= 248.35\ngini = 0.232\nsamples = 46\nvalue = [1, 40, 5]"] ;
850 -> 851 ;
852 [label="x[0] <= 28.0\ngini = 0.201\nsamples = 45\nvalue = [1, 40, 4]"] ;
851 -> 852 ;
853 [label="x[2] <= 0.5\ngini = 0.46\nsamples = 10\nvalue = [1, 7, 2]"] ;
852 -> 853 ;
854 [label="gini = 0.0\nsamples = 7\nvalue = [0, 7, 0]"] ;
853 -> 854 ;
855 [label="x[18] <= 0.5\ngini = 0.444\nsamples = 3\nvalue = [1, 0, 2]"] ;
853 -> 855 ;
856 [label="gini = 0.0\nsamples = 2\nvalue = [0, 0, 2]"] ;
855 -> 856 ;
857 [label="gini = 0.0\nsamples = 1\nvalue = [1, 0, 0]"] ;
855 -> 857 ;
858 [label="x[3] <= 18.16\ngini = 0.108\nsamples = 35\nvalue = [0, 33, 2]"] ;
852 -> 858 ;
859 [label="x[3] <= 17.535\ngini = 0.346\nsamples = 9\nvalue = [0, 7, 2]"] ;
858 -> 859 ;
860 [label="gini = 0.0\nsamples = 7\nvalue = [0, 7, 0]"] ;
859 -> 860 ;
861 [label="gini = 0.0\nsamples = 2\nvalue = [0, 0, 2]"] ;
859 -> 861 ;
862 [label="gini = 0.0\nsamples = 26\nvalue = [0, 26, 0]"] ;
858 -> 862 ;
863 [label="gini = 0.0\nsamples = 1\nvalue = [0, 0, 1]"] ;
851 -> 863 ;
864 [label="x[3] <= 33.855\ngini = 0.542\nsamples = 63\nvalue = [10, 39, 14]"] ;
850 -> 864 ;
865 [label="x[8] <= 96.5\ngini = 0.639\nsamples = 32\nvalue = [8, 15, 9]"] ;
864 -> 865 ;
866 [label="x[6] <= 204.6\ngini = 0.604\nsamples = 15\nvalue = [7, 6, 2]"] ;
865 -> 866 ;
867 [label="x[0] <= 52.5\ngini = 0.531\nsamples = 8\nvalue = [5, 1, 2]"] ;
866 -> 867 ;
868 [label="gini = 0.0\nsamples = 2\nvalue = [0, 0, 2]"] ;
867 -> 868 ;
869 [label="x[12] <= 195.0\ngini = 0.278\nsamples = 6\nvalue = [5, 1, 0]"] ;
867 -> 869 ;
870 [label="gini = 0.0\nsamples = 5\nvalue = [5, 0, 0]"] ;
869 -> 870 ;
871 [label="gini = 0.0\nsamples = 1\nvalue = [0, 1, 0]"] ;
869 -> 871 ;
872 [label="x[14] <= 0.5\ngini = 0.408\nsamples = 7\nvalue = [2, 5, 0]"] ;
866 -> 872 ;
873 [label="x[13] <= 0.5\ngini = 0.444\nsamples = 3\nvalue = [2, 1, 0]"] ;
872 -> 873 ;
874 [label="gini = 0.0\nsamples = 1\nvalue = [0, 1, 0]"] ;
873 -> 874 ;
875 [label="gini = 0.0\nsamples = 2\nvalue = [2, 0, 0]"] ;
873 -> 875 ;
876 [label="gini = 0.0\nsamples = 4\nvalue = [0, 4, 0]"] ;
872 -> 876 ;
877 [label="x[19] <= 0.5\ngini = 0.547\nsamples = 17\nvalue = [1, 9, 7]"] ;
865 -> 877 ;
878 [label="x[0] <= 36.5\ngini = 0.486\nsamples = 12\nvalue = [0, 5, 7]"] ;
877 -> 878 ;
879 [label="x[14] <= 0.5\ngini = 0.469\nsamples = 8\nvalue = [0, 5, 3]"] ;
878 -> 879 ;
880 [label="gini = 0.0\nsamples = 3\nvalue = [0, 3, 0]"] ;
879 -> 880 ;
881 [label="x[7] <= 93.0\ngini = 0.48\nsamples = 5\nvalue = [0, 2, 3]"] ;
879 -> 881 ;
882 [label="gini = 0.0\nsamples = 2\nvalue = [0, 2, 0]"] ;
881 -> 882 ;
883 [label="gini = 0.0\nsamples = 3\nvalue = [0, 0, 3]"] ;
881 -> 883 ;
884 [label="gini = 0.0\nsamples = 4\nvalue = [0, 0, 4]"] ;
878 -> 884 ;
885 [label="x[8] <= 108.5\ngini = 0.32\nsamples = 5\nvalue = [1, 4, 0]"] ;
877 -> 885 ;
886 [label="gini = 0.0\nsamples = 4\nvalue = [0, 4, 0]"] ;
885 -> 886 ;
887 [label="gini = 0.0\nsamples = 1\nvalue = [1, 0, 0]"] ;
885 -> 887 ;
888 [label="x[18] <= 0.5\ngini = 0.37\nsamples = 31\nvalue = [2, 24, 5]"] ;
864 -> 888 ;
889 [label="x[6] <= 221.9\ngini = 0.505\nsamples = 20\nvalue = [2, 13, 5]"] ;
888 -> 889 ;
890 [label="x[14] <= 0.5\ngini = 0.496\nsamples = 11\nvalue = [0, 6, 5]"] ;
889 -> 890 ;
891 [label="gini = 0.0\nsamples = 3\nvalue = [0, 3, 0]"] ;
890 -> 891 ;
892 [label="x[8] <= 99.5\ngini = 0.469\nsamples = 8\nvalue = [0, 3, 5]"] ;
890 -> 892 ;
893 [label="x[0] <= 70.5\ngini = 0.375\nsamples = 4\nvalue = [0, 3, 1]"] ;
892 -> 893 ;
894 [label="gini = 0.0\nsamples = 3\nvalue = [0, 3, 0]"] ;
893 -> 894 ;
895 [label="gini = 0.0\nsamples = 1\nvalue = [0, 0, 1]"] ;
893 -> 895 ;
896 [label="gini = 0.0\nsamples = 4\nvalue = [0, 0, 4]"] ;
892 -> 896 ;
897 [label="x[12] <= 120.5\ngini = 0.346\nsamples = 9\nvalue = [2, 7, 0]"] ;
889 -> 897 ;
898 [label="gini = 0.0\nsamples = 2\nvalue = [2, 0, 0]"] ;
897 -> 898 ;
899 [label="gini = 0.0\nsamples = 7\nvalue = [0, 7, 0]"] ;
897 -> 899 ;
900 [label="gini = 0.0\nsamples = 11\nvalue = [0, 11, 0]"] ;
888 -> 900 ;
901 [label="x[8] <= 108.5\ngini = 0.572\nsamples = 83\nvalue = [9, 45, 29]"] ;
849 -> 901 ;
902 [label="x[7] <= 96.5\ngini = 0.565\nsamples = 80\nvalue = [9, 45, 26]"] ;
901 -> 902 ;
903 [label="x[3] <= 16.27\ngini = 0.57\nsamples = 49\nvalue = [4.0, 24.0, 21.0]"] ;
902 -> 903 ;
904 [label="gini = 0.0\nsamples = 4\nvalue = [0, 4, 0]"] ;
903 -> 904 ;
905 [label="x[12] <= 116.0\ngini = 0.577\nsamples = 45\nvalue = [4, 20, 21]"] ;
903 -> 905 ;
906 [label="x[0] <= 38.5\ngini = 0.346\nsamples = 9\nvalue = [0, 7, 2]"] ;
905 -> 906 ;
907 [label="x[6] <= 186.0\ngini = 0.444\nsamples = 3\nvalue = [0, 1, 2]"] ;
906 -> 907 ;
908 [label="gini = 0.0\nsamples = 1\nvalue = [0, 1, 0]"] ;
907 -> 908 ;
909 [label="gini = 0.0\nsamples = 2\nvalue = [0, 0, 2]"] ;
907 -> 909 ;
910 [label="gini = 0.0\nsamples = 6\nvalue = [0, 6, 0]"] ;
906 -> 910 ;
911 [label="x[0] <= 31.5\ngini = 0.579\nsamples = 36\nvalue = [4, 13, 19]"] ;
905 -> 911 ;
912 [label="gini = 0.0\nsamples = 3\nvalue = [0, 3, 0]"] ;
911 -> 912 ;
913 [label="x[6] <= 201.7\ngini = 0.562\nsamples = 33\nvalue = [4, 10, 19]"] ;
911 -> 913 ;
914 [label="x[2] <= 0.5\ngini = 0.658\nsamples = 15\nvalue = [4, 6, 5]"] ;
913 -> 914 ;
915 [label="x[1] <= 0.5\ngini = 0.611\nsamples = 12\nvalue = [4, 6, 2]"] ;
914 -> 915 ;
916 [label="x[0] <= 42.5\ngini = 0.406\nsamples = 8\nvalue = [1, 6, 1]"] ;
915 -> 916 ;
917 [label="gini = 0.0\nsamples = 1\nvalue = [0, 0, 1]"] ;
916 -> 917 ;
918 [label="x[6] <= 178.7\ngini = 0.245\nsamples = 7\nvalue = [1, 6, 0]"] ;
916 -> 918 ;
919 [label="x[13] <= 0.5\ngini = 0.5\nsamples = 2\nvalue = [1, 1, 0]"] ;
918 -> 919 ;
920 [label="gini = 0.0\nsamples = 1\nvalue = [0, 1, 0]"] ;
919 -> 920 ;
921 [label="gini = 0.0\nsamples = 1\nvalue = [1, 0, 0]"] ;
919 -> 921 ;
922 [label="gini = 0.0\nsamples = 5\nvalue = [0, 5, 0]"] ;
918 -> 922 ;
923 [label="x[12] <= 194.0\ngini = 0.375\nsamples = 4\nvalue = [3, 0, 1]"] ;
915 -> 923 ;
924 [label="gini = 0.0\nsamples = 3\nvalue = [3, 0, 0]"] ;
923 -> 924 ;
925 [label="gini = 0.0\nsamples = 1\nvalue = [0, 0, 1]"] ;
923 -> 925 ;
926 [label="gini = 0.0\nsamples = 3\nvalue = [0, 0, 3]"] ;
914 -> 926 ;
927 [label="x[12] <= 192.5\ngini = 0.346\nsamples = 18\nvalue = [0, 4, 14]"] ;
913 -> 927 ;
928 [label="x[7] <= 90.5\ngini = 0.219\nsamples = 16\nvalue = [0, 2, 14]"] ;
927 -> 928 ;
929 [label="gini = 0.0\nsamples = 1\nvalue = [0, 1, 0]"] ;
928 -> 929 ;
930 [label="x[0] <= 85.5\ngini = 0.124\nsamples = 15\nvalue = [0, 1, 14]"] ;
928 -> 930 ;
931 [label="gini = 0.0\nsamples = 13\nvalue = [0, 0, 13]"] ;
930 -> 931 ;
932 [label="x[0] <= 87.5\ngini = 0.5\nsamples = 2\nvalue = [0, 1, 1]"] ;
930 -> 932 ;
933 [label="gini = 0.0\nsamples = 1\nvalue = [0, 1, 0]"] ;
932 -> 933 ;
934 [label="gini = 0.0\nsamples = 1\nvalue = [0, 0, 1]"] ;
932 -> 934 ;
935 [label="gini = 0.0\nsamples = 2\nvalue = [0, 2, 0]"] ;
927 -> 935 ;
936 [label="x[6] <= 196.2\ngini = 0.489\nsamples = 31\nvalue = [5, 21, 5]"] ;
902 -> 936 ;
937 [label="x[0] <= 63.0\ngini = 0.653\nsamples = 7\nvalue = [2, 2, 3]"] ;
936 -> 937 ;
938 [label="x[3] <= 37.02\ngini = 0.48\nsamples = 5\nvalue = [0, 2, 3]"] ;
937 -> 938 ;
939 [label="x[12] <= 162.5\ngini = 0.444\nsamples = 3\nvalue = [0, 2, 1]"] ;
938 -> 939 ;
940 [label="gini = 0.0\nsamples = 2\nvalue = [0, 2, 0]"] ;
939 -> 940 ;
941 [label="gini = 0.0\nsamples = 1\nvalue = [0, 0, 1]"] ;
939 -> 941 ;
942 [label="gini = 0.0\nsamples = 2\nvalue = [0, 0, 2]"] ;
938 -> 942 ;
943 [label="gini = 0.0\nsamples = 2\nvalue = [2, 0, 0]"] ;
937 -> 943 ;
944 [label="x[8] <= 90.5\ngini = 0.351\nsamples = 24\nvalue = [3, 19, 2]"] ;
936 -> 944 ;
945 [label="x[12] <= 113.5\ngini = 0.5\nsamples = 2\nvalue = [1, 0, 1]"] ;
944 -> 945 ;
946 [label="gini = 0.0\nsamples = 1\nvalue = [1, 0, 0]"] ;
945 -> 946 ;
947 [label="gini = 0.0\nsamples = 1\nvalue = [0, 0, 1]"] ;
945 -> 947 ;
948 [label="x[3] <= 25.735\ngini = 0.244\nsamples = 22\nvalue = [2, 19, 1]"] ;
944 -> 948 ;
949 [label="x[3] <= 21.165\ngini = 0.571\nsamples = 7\nvalue = [2, 4, 1]"] ;
948 -> 949 ;
950 [label="gini = 0.0\nsamples = 4\nvalue = [0, 4, 0]"] ;
949 -> 950 ;
951 [label="x[13] <= 0.5\ngini = 0.444\nsamples = 3\nvalue = [2, 0, 1]"] ;
949 -> 951 ;
952 [label="gini = 0.0\nsamples = 2\nvalue = [2, 0, 0]"] ;
951 -> 952 ;
953 [label="gini = 0.0\nsamples = 1\nvalue = [0, 0, 1]"] ;
951 -> 953 ;
954 [label="gini = 0.0\nsamples = 15\nvalue = [0, 15, 0]"] ;
948 -> 954 ;
955 [label="gini = 0.0\nsamples = 3\nvalue = [0, 0, 3]"] ;
901 -> 955 ;
956 [label="x[0] <= 20.5\ngini = 0.631\nsamples = 188\nvalue = [43.0, 91.0, 54.0]"] ;
848 -> 956 ;
957 [label="x[2] <= 0.5\ngini = 0.165\nsamples = 11\nvalue = [0, 10, 1]"] ;
956 -> 957 ;
958 [label="gini = 0.0\nsamples = 9\nvalue = [0, 9, 0]"] ;
957 -> 958 ;
959 [label="x[14] <= 0.5\ngini = 0.5\nsamples = 2\nvalue = [0, 1, 1]"] ;
957 -> 959 ;
960 [label="gini = 0.0\nsamples = 1\nvalue = [0, 0, 1]"] ;
959 -> 960 ;
961 [label="gini = 0.0\nsamples = 1\nvalue = [0, 1, 0]"] ;
959 -> 961 ;
962 [label="x[0] <= 24.5\ngini = 0.642\nsamples = 177\nvalue = [43, 81, 53]"] ;
956 -> 962 ;
963 [label="x[1] <= 0.5\ngini = 0.444\nsamples = 9\nvalue = [3, 0, 6]"] ;
962 -> 963 ;
964 [label="x[8] <= 113.5\ngini = 0.5\nsamples = 6\nvalue = [3, 0, 3]"] ;
963 -> 964 ;
965 [label="gini = 0.0\nsamples = 2\nvalue = [0, 0, 2]"] ;
964 -> 965 ;
966 [label="x[3] <= 33.6\ngini = 0.375\nsamples = 4\nvalue = [3, 0, 1]"] ;
964 -> 966 ;
967 [label="gini = 0.0\nsamples = 3\nvalue = [3, 0, 0]"] ;
966 -> 967 ;
968 [label="gini = 0.0\nsamples = 1\nvalue = [0, 0, 1]"] ;
966 -> 968 ;
969 [label="gini = 0.0\nsamples = 3\nvalue = [0, 0, 3]"] ;
963 -> 969 ;
970 [label="x[12] <= 177.5\ngini = 0.633\nsamples = 168\nvalue = [40, 81, 47]"] ;
962 -> 970 ;
971 [label="x[8] <= 111.5\ngini = 0.62\nsamples = 143\nvalue = [28, 71, 44]"] ;
970 -> 971 ;
972 [label="x[7] <= 94.5\ngini = 0.531\nsamples = 8\nvalue = [5, 1, 2]"] ;
971 -> 972 ;
973 [label="x[12] <= 137.5\ngini = 0.625\nsamples = 4\nvalue = [1, 1, 2]"] ;
972 -> 973 ;
974 [label="x[23] <= 0.5\ngini = 0.5\nsamples = 2\nvalue = [1, 1, 0]"] ;
973 -> 974 ;
975 [label="gini = 0.0\nsamples = 1\nvalue = [0, 1, 0]"] ;
974 -> 975 ;
976 [label="gini = 0.0\nsamples = 1\nvalue = [1, 0, 0]"] ;
974 -> 976 ;
977 [label="gini = 0.0\nsamples = 2\nvalue = [0, 0, 2]"] ;
973 -> 977 ;
978 [label="gini = 0.0\nsamples = 4\nvalue = [4, 0, 0]"] ;
972 -> 978 ;
979 [label="x[6] <= 242.9\ngini = 0.605\nsamples = 135\nvalue = [23, 70, 42]"] ;
971 -> 979 ;
980 [label="x[6] <= 236.15\ngini = 0.617\nsamples = 117\nvalue = [20, 57, 40]"] ;
979 -> 980 ;
981 [label="x[7] <= 93.5\ngini = 0.609\nsamples = 107\nvalue = [19.0, 55.0, 33.0]"] ;
980 -> 981 ;
982 [label="x[3] <= 20.525\ngini = 0.556\nsamples = 48\nvalue = [10, 29, 9]"] ;
981 -> 982 ;
983 [label="x[13] <= 0.5\ngini = 0.645\nsamples = 11\nvalue = [5, 3, 3]"] ;
982 -> 983 ;
984 [label="x[3] <= 19.795\ngini = 0.469\nsamples = 8\nvalue = [5, 0, 3]"] ;
983 -> 984 ;
985 [label="gini = 0.0\nsamples = 5\nvalue = [5, 0, 0]"] ;
984 -> 985 ;
986 [label="gini = 0.0\nsamples = 3\nvalue = [0, 0, 3]"] ;
984 -> 986 ;
987 [label="gini = 0.0\nsamples = 3\nvalue = [0, 3, 0]"] ;
983 -> 987 ;
988 [label="x[6] <= 177.15\ngini = 0.462\nsamples = 37\nvalue = [5, 26, 6]"] ;
982 -> 988 ;
989 [label="x[6] <= 175.05\ngini = 0.444\nsamples = 3\nvalue = [0, 1, 2]"] ;
988 -> 989 ;
990 [label="gini = 0.0\nsamples = 1\nvalue = [0, 1, 0]"] ;
989 -> 990 ;
991 [label="gini = 0.0\nsamples = 2\nvalue = [0, 0, 2]"] ;
989 -> 991 ;
992 [label="x[8] <= 112.5\ngini = 0.424\nsamples = 34\nvalue = [5, 25, 4]"] ;
988 -> 992 ;
993 [label="gini = 0.0\nsamples = 1\nvalue = [1, 0, 0]"] ;
992 -> 993 ;
994 [label="x[3] <= 30.005\ngini = 0.397\nsamples = 33\nvalue = [4, 25, 4]"] ;
992 -> 994 ;
995 [label="x[3] <= 28.45\ngini = 0.529\nsamples = 22\nvalue = [4, 14, 4]"] ;
994 -> 995 ;
996 [label="x[17] <= 0.5\ngini = 0.426\nsamples = 18\nvalue = [4, 13, 1]"] ;
995 -> 996 ;
997 [label="gini = 0.0\nsamples = 7\nvalue = [0, 7, 0]"] ;
996 -> 997 ;
998 [label="x[3] <= 23.61\ngini = 0.562\nsamples = 11\nvalue = [4, 6, 1]"] ;
996 -> 998 ;
999 [label="gini = 0.0\nsamples = 4\nvalue = [0, 4, 0]"] ;
998 -> 999 ;
1000 [label="x[6] <= 203.55\ngini = 0.571\nsamples = 7\nvalue = [4, 2, 1]"] ;
998 -> 1000 ;
1001 [label="gini = 0.0\nsamples = 3\nvalue = [3, 0, 0]"] ;
1000 -> 1001 ;
1002 [label="x[8] <= 125.0\ngini = 0.625\nsamples = 4\nvalue = [1, 2, 1]"] ;
1000 -> 1002 ;
1003 [label="x[19] <= 0.5\ngini = 0.5\nsamples = 2\nvalue = [1, 0, 1]"] ;
1002 -> 1003 ;
1004 [label="gini = 0.0\nsamples = 1\nvalue = [1, 0, 0]"] ;
1003 -> 1004 ;
1005 [label="gini = 0.0\nsamples = 1\nvalue = [0, 0, 1]"] ;
1003 -> 1005 ;
1006 [label="gini = 0.0\nsamples = 2\nvalue = [0, 2, 0]"] ;
1002 -> 1006 ;
1007 [label="x[12] <= 145.5\ngini = 0.375\nsamples = 4\nvalue = [0, 1, 3]"] ;
995 -> 1007 ;
1008 [label="gini = 0.0\nsamples = 3\nvalue = [0, 0, 3]"] ;
1007 -> 1008 ;
1009 [label="gini = 0.0\nsamples = 1\nvalue = [0, 1, 0]"] ;
1007 -> 1009 ;
1010 [label="gini = 0.0\nsamples = 11\nvalue = [0, 11, 0]"] ;
994 -> 1010 ;
1011 [label="x[20] <= 0.5\ngini = 0.617\nsamples = 59\nvalue = [9, 26, 24]"] ;
981 -> 1011 ;
1012 [label="x[0] <= 33.5\ngini = 0.579\nsamples = 43\nvalue = [5.0, 23.0, 15.0]"] ;
1011 -> 1012 ;
1013 [label="x[0] <= 28.0\ngini = 0.625\nsamples = 8\nvalue = [4, 2, 2]"] ;
1012 -> 1013 ;
1014 [label="x[7] <= 97.5\ngini = 0.5\nsamples = 4\nvalue = [0, 2, 2]"] ;
1013 -> 1014 ;
1015 [label="gini = 0.0\nsamples = 2\nvalue = [0, 0, 2]"] ;
1014 -> 1015 ;
1016 [label="gini = 0.0\nsamples = 2\nvalue = [0, 2, 0]"] ;
1014 -> 1016 ;
1017 [label="gini = 0.0\nsamples = 4\nvalue = [4, 0, 0]"] ;
1013 -> 1017 ;
1018 [label="x[12] <= 109.5\ngini = 0.501\nsamples = 35\nvalue = [1, 21, 13]"] ;
1012 -> 1018 ;
1019 [label="gini = 0.0\nsamples = 4\nvalue = [0, 4, 0]"] ;
1018 -> 1019 ;
1020 [label="x[22] <= 0.5\ngini = 0.522\nsamples = 31\nvalue = [1, 17, 13]"] ;
1018 -> 1020 ;
1021 [label="x[12] <= 153.0\ngini = 0.495\nsamples = 20\nvalue = [0, 9, 11]"] ;
1020 -> 1021 ;
1022 [label="x[3] <= 31.245\ngini = 0.444\nsamples = 15\nvalue = [0, 5, 10]"] ;
1021 -> 1022 ;
1023 [label="x[8] <= 115.5\ngini = 0.219\nsamples = 8\nvalue = [0, 1, 7]"] ;
1022 -> 1023 ;
1024 [label="gini = 0.0\nsamples = 1\nvalue = [0, 1, 0]"] ;
1023 -> 1024 ;
1025 [label="gini = 0.0\nsamples = 7\nvalue = [0, 0, 7]"] ;
1023 -> 1025 ;
1026 [label="x[3] <= 34.78\ngini = 0.49\nsamples = 7\nvalue = [0, 4, 3]"] ;
1022 -> 1026 ;
1027 [label="gini = 0.0\nsamples = 4\nvalue = [0, 4, 0]"] ;
1026 -> 1027 ;
1028 [label="gini = 0.0\nsamples = 3\nvalue = [0, 0, 3]"] ;
1026 -> 1028 ;
1029 [label="x[1] <= 0.5\ngini = 0.32\nsamples = 5\nvalue = [0, 4, 1]"] ;
1021 -> 1029 ;
1030 [label="gini = 0.0\nsamples = 4\nvalue = [0, 4, 0]"] ;
1029 -> 1030 ;
1031 [label="gini = 0.0\nsamples = 1\nvalue = [0, 0, 1]"] ;
1029 -> 1031 ;
1032 [label="x[7] <= 95.5\ngini = 0.43\nsamples = 11\nvalue = [1, 8, 2]"] ;
1020 -> 1032 ;
1033 [label="gini = 0.0\nsamples = 2\nvalue = [0, 0, 2]"] ;
1032 -> 1033 ;
1034 [label="x[6] <= 229.7\ngini = 0.198\nsamples = 9\nvalue = [1, 8, 0]"] ;
1032 -> 1034 ;
1035 [label="gini = 0.0\nsamples = 8\nvalue = [0, 8, 0]"] ;
1034 -> 1035 ;
1036 [label="gini = 0.0\nsamples = 1\nvalue = [1, 0, 0]"] ;
1034 -> 1036 ;
1037 [label="x[2] <= 0.5\ngini = 0.586\nsamples = 16\nvalue = [4, 3, 9]"] ;
1011 -> 1037 ;
1038 [label="x[12] <= 149.0\ngini = 0.661\nsamples = 11\nvalue = [4, 3, 4]"] ;
1037 -> 1038 ;
1039 [label="x[22] <= 0.5\ngini = 0.49\nsamples = 7\nvalue = [4, 0, 3]"] ;
1038 -> 1039 ;
1040 [label="gini = 0.0\nsamples = 4\nvalue = [4, 0, 0]"] ;
1039 -> 1040 ;
1041 [label="gini = 0.0\nsamples = 3\nvalue = [0, 0, 3]"] ;
1039 -> 1041 ;
1042 [label="x[7] <= 96.0\ngini = 0.375\nsamples = 4\nvalue = [0, 3, 1]"] ;
1038 -> 1042 ;
1043 [label="gini = 0.0\nsamples = 1\nvalue = [0, 0, 1]"] ;
1042 -> 1043 ;
1044 [label="gini = 0.0\nsamples = 3\nvalue = [0, 3, 0]"] ;
1042 -> 1044 ;
1045 [label="gini = 0.0\nsamples = 5\nvalue = [0, 0, 5]"] ;
1037 -> 1045 ;
1046 [label="x[3] <= 20.745\ngini = 0.46\nsamples = 10\nvalue = [1, 2, 7]"] ;
980 -> 1046 ;
1047 [label="gini = 0.0\nsamples = 2\nvalue = [0, 2, 0]"] ;
1046 -> 1047 ;
1048 [label="x[8] <= 123.5\ngini = 0.219\nsamples = 8\nvalue = [1, 0, 7]"] ;
1046 -> 1048 ;
1049 [label="gini = 0.0\nsamples = 6\nvalue = [0, 0, 6]"] ;
1048 -> 1049 ;
1050 [label="x[0] <= 61.0\ngini = 0.5\nsamples = 2\nvalue = [1, 0, 1]"] ;
1048 -> 1050 ;
1051 [label="gini = 0.0\nsamples = 1\nvalue = [0, 0, 1]"] ;
1050 -> 1051 ;
1052 [label="gini = 0.0\nsamples = 1\nvalue = [1, 0, 0]"] ;
1050 -> 1052 ;
1053 [label="x[3] <= 30.035\ngini = 0.438\nsamples = 18\nvalue = [3, 13, 2]"] ;
979 -> 1053 ;
1054 [label="x[6] <= 253.65\ngini = 0.153\nsamples = 12\nvalue = [0, 11, 1]"] ;
1053 -> 1054 ;
1055 [label="gini = 0.0\nsamples = 11\nvalue = [0, 11, 0]"] ;
1054 -> 1055 ;
1056 [label="gini = 0.0\nsamples = 1\nvalue = [0, 0, 1]"] ;
1054 -> 1056 ;
1057 [label="x[12] <= 156.5\ngini = 0.611\nsamples = 6\nvalue = [3, 2, 1]"] ;
1053 -> 1057 ;
1058 [label="gini = 0.0\nsamples = 3\nvalue = [3, 0, 0]"] ;
1057 -> 1058 ;
1059 [label="x[16] <= 0.5\ngini = 0.444\nsamples = 3\nvalue = [0, 2, 1]"] ;
1057 -> 1059 ;
1060 [label="gini = 0.0\nsamples = 1\nvalue = [0, 0, 1]"] ;
1059 -> 1060 ;
1061 [label="gini = 0.0\nsamples = 2\nvalue = [0, 2, 0]"] ;
1059 -> 1061 ;
1062 [label="x[0] <= 57.5\ngini = 0.595\nsamples = 25\nvalue = [12, 10, 3]"] ;
970 -> 1062 ;
1063 [label="x[23] <= 0.5\ngini = 0.486\nsamples = 12\nvalue = [8, 1, 3]"] ;
1062 -> 1063 ;
1064 [label="x[3] <= 18.375\ngini = 0.37\nsamples = 9\nvalue = [7, 1, 1]"] ;
1063 -> 1064 ;
1065 [label="gini = 0.0\nsamples = 1\nvalue = [0, 0, 1]"] ;
1064 -> 1065 ;
1066 [label="x[8] <= 123.5\ngini = 0.219\nsamples = 8\nvalue = [7, 1, 0]"] ;
1064 -> 1066 ;
1067 [label="gini = 0.0\nsamples = 7\nvalue = [7, 0, 0]"] ;
1066 -> 1067 ;
1068 [label="gini = 0.0\nsamples = 1\nvalue = [0, 1, 0]"] ;
1066 -> 1068 ;
1069 [label="x[8] <= 127.5\ngini = 0.444\nsamples = 3\nvalue = [1, 0, 2]"] ;
1063 -> 1069 ;
1070 [label="gini = 0.0\nsamples = 2\nvalue = [0, 0, 2]"] ;
1069 -> 1070 ;
1071 [label="gini = 0.0\nsamples = 1\nvalue = [1, 0, 0]"] ;
1069 -> 1071 ;
1072 [label="x[3] <= 35.15\ngini = 0.426\nsamples = 13\nvalue = [4, 9, 0]"] ;
1062 -> 1072 ;
1073 [label="x[8] <= 124.0\ngini = 0.198\nsamples = 9\nvalue = [1, 8, 0]"] ;
1072 -> 1073 ;
1074 [label="gini = 0.0\nsamples = 8\nvalue = [0, 8, 0]"] ;
1073 -> 1074 ;
1075 [label="gini = 0.0\nsamples = 1\nvalue = [1, 0, 0]"] ;
1073 -> 1075 ;
1076 [label="x[3] <= 39.115\ngini = 0.375\nsamples = 4\nvalue = [3, 1, 0]"] ;
1072 -> 1076 ;
1077 [label="gini = 0.0\nsamples = 3\nvalue = [3, 0, 0]"] ;
1076 -> 1077 ;
1078 [label="gini = 0.0\nsamples = 1\nvalue = [0, 1, 0]"] ;
1076 -> 1078 ;
1079 [label="x[6] <= 252.75\ngini = 0.635\nsamples = 363\nvalue = [89.0, 173.0, 101.0]"] ;
847 -> 1079 ;
1080 [label="x[6] <= 251.85\ngini = 0.639\nsamples = 357\nvalue = [89, 167, 101]"] ;
1079 -> 1080 ;
1081 [label="x[7] <= 106.5\ngini = 0.638\nsamples = 354\nvalue = [89, 167, 98]"] ;
1080 -> 1081 ;
1082 [label="x[0] <= 25.5\ngini = 0.649\nsamples = 209\nvalue = [51, 90, 68]"] ;
1081 -> 1082 ;
1083 [label="x[8] <= 107.5\ngini = 0.591\nsamples = 36\nvalue = [12, 19, 5]"] ;
1082 -> 1083 ;
1084 [label="x[3] <= 27.01\ngini = 0.625\nsamples = 12\nvalue = [6, 3, 3]"] ;
1083 -> 1084 ;
1085 [label="x[7] <= 104.5\ngini = 0.375\nsamples = 8\nvalue = [6, 0, 2]"] ;
1084 -> 1085 ;
1086 [label="x[8] <= 95.0\ngini = 0.245\nsamples = 7\nvalue = [6, 0, 1]"] ;
1085 -> 1086 ;
1087 [label="gini = 0.0\nsamples = 1\nvalue = [0, 0, 1]"] ;
1086 -> 1087 ;
1088 [label="gini = 0.0\nsamples = 6\nvalue = [6, 0, 0]"] ;
1086 -> 1088 ;
1089 [label="gini = 0.0\nsamples = 1\nvalue = [0, 0, 1]"] ;
1085 -> 1089 ;
1090 [label="x[0] <= 20.0\ngini = 0.375\nsamples = 4\nvalue = [0, 3, 1]"] ;
1084 -> 1090 ;
1091 [label="gini = 0.0\nsamples = 1\nvalue = [0, 0, 1]"] ;
1090 -> 1091 ;
1092 [label="gini = 0.0\nsamples = 3\nvalue = [0, 3, 0]"] ;
1090 -> 1092 ;
1093 [label="x[6] <= 238.7\ngini = 0.486\nsamples = 24\nvalue = [6, 16, 2]"] ;
1083 -> 1093 ;
1094 [label="x[6] <= 211.4\ngini = 0.364\nsamples = 18\nvalue = [3, 14, 1]"] ;
1093 -> 1094 ;
1095 [label="x[0] <= 21.5\ngini = 0.568\nsamples = 9\nvalue = [3, 5, 1]"] ;
1094 -> 1095 ;
1096 [label="gini = 0.0\nsamples = 3\nvalue = [0, 3, 0]"] ;
1095 -> 1096 ;
1097 [label="x[1] <= 0.5\ngini = 0.611\nsamples = 6\nvalue = [3, 2, 1]"] ;
1095 -> 1097 ;
1098 [label="x[3] <= 25.365\ngini = 0.48\nsamples = 5\nvalue = [3, 2, 0]"] ;
1097 -> 1098 ;
1099 [label="x[6] <= 203.0\ngini = 0.444\nsamples = 3\nvalue = [1, 2, 0]"] ;
1098 -> 1099 ;
1100 [label="gini = 0.0\nsamples = 2\nvalue = [0, 2, 0]"] ;
1099 -> 1100 ;
1101 [label="gini = 0.0\nsamples = 1\nvalue = [1, 0, 0]"] ;
1099 -> 1101 ;
1102 [label="gini = 0.0\nsamples = 2\nvalue = [2, 0, 0]"] ;
1098 -> 1102 ;
1103 [label="gini = 0.0\nsamples = 1\nvalue = [0, 0, 1]"] ;
1097 -> 1103 ;
1104 [label="gini = 0.0\nsamples = 9\nvalue = [0, 9, 0]"] ;
1094 -> 1104 ;
1105 [label="x[6] <= 246.55\ngini = 0.611\nsamples = 6\nvalue = [3, 2, 1]"] ;
1093 -> 1105 ;
1106 [label="x[12] <= 162.5\ngini = 0.48\nsamples = 5\nvalue = [3, 2, 0]"] ;
1105 -> 1106 ;
1107 [label="x[12] <= 127.5\ngini = 0.444\nsamples = 3\nvalue = [1, 2, 0]"] ;
1106 -> 1107 ;
1108 [label="gini = 0.0\nsamples = 1\nvalue = [1, 0, 0]"] ;
1107 -> 1108 ;
1109 [label="gini = 0.0\nsamples = 2\nvalue = [0, 2, 0]"] ;
1107 -> 1109 ;
1110 [label="gini = 0.0\nsamples = 2\nvalue = [2, 0, 0]"] ;
1106 -> 1110 ;
1111 [label="gini = 0.0\nsamples = 1\nvalue = [0, 0, 1]"] ;
1105 -> 1111 ;
1112 [label="x[0] <= 31.5\ngini = 0.648\nsamples = 173\nvalue = [39, 71, 63]"] ;
1082 -> 1112 ;
1113 [label="x[0] <= 27.5\ngini = 0.519\nsamples = 17\nvalue = [3, 3, 11]"] ;
1112 -> 1113 ;
1114 [label="x[6] <= 218.35\ngini = 0.667\nsamples = 6\nvalue = [2, 2, 2]"] ;
1113 -> 1114 ;
1115 [label="gini = 0.0\nsamples = 2\nvalue = [0, 2, 0]"] ;
1114 -> 1115 ;
1116 [label="x[12] <= 175.5\ngini = 0.5\nsamples = 4\nvalue = [2, 0, 2]"] ;
1114 -> 1116 ;
1117 [label="gini = 0.0\nsamples = 2\nvalue = [2, 0, 0]"] ;
1116 -> 1117 ;
1118 [label="gini = 0.0\nsamples = 2\nvalue = [0, 0, 2]"] ;
1116 -> 1118 ;
1119 [label="x[10] <= 0.5\ngini = 0.314\nsamples = 11\nvalue = [1, 1, 9]"] ;
1113 -> 1119 ;
1120 [label="gini = 0.0\nsamples = 8\nvalue = [0, 0, 8]"] ;
1119 -> 1120 ;
1121 [label="x[21] <= 0.5\ngini = 0.667\nsamples = 3\nvalue = [1, 1, 1]"] ;
1119 -> 1121 ;
1122 [label="x[12] <= 167.5\ngini = 0.5\nsamples = 2\nvalue = [0, 1, 1]"] ;
1121 -> 1122 ;
1123 [label="gini = 0.0\nsamples = 1\nvalue = [0, 0, 1]"] ;
1122 -> 1123 ;
1124 [label="gini = 0.0\nsamples = 1\nvalue = [0, 1, 0]"] ;
1122 -> 1124 ;
1125 [label="gini = 0.0\nsamples = 1\nvalue = [1, 0, 0]"] ;
1121 -> 1125 ;
1126 [label="x[12] <= 196.0\ngini = 0.646\nsamples = 156\nvalue = [36, 68, 52]"] ;
1112 -> 1126 ;
1127 [label="x[11] <= 0.5\ngini = 0.65\nsamples = 152\nvalue = [36, 64, 52]"] ;
1126 -> 1127 ;
1128 [label="x[7] <= 102.5\ngini = 0.656\nsamples = 124\nvalue = [31, 47, 46]"] ;
1127 -> 1128 ;
1129 [label="x[3] <= 27.045\ngini = 0.657\nsamples = 39\nvalue = [16, 11, 12]"] ;
1128 -> 1129 ;
1130 [label="x[3] <= 17.465\ngini = 0.65\nsamples = 23\nvalue = [6, 7, 10]"] ;
1129 -> 1130 ;
1131 [label="x[0] <= 35.5\ngini = 0.32\nsamples = 5\nvalue = [4, 1, 0]"] ;
1130 -> 1131 ;
1132 [label="gini = 0.0\nsamples = 1\nvalue = [0, 1, 0]"] ;
1131 -> 1132 ;
1133 [label="gini = 0.0\nsamples = 4\nvalue = [4, 0, 0]"] ;
1131 -> 1133 ;
1134 [label="x[0] <= 44.5\ngini = 0.568\nsamples = 18\nvalue = [2, 6, 10]"] ;
1130 -> 1134 ;
1135 [label="gini = 0.0\nsamples = 3\nvalue = [0, 3, 0]"] ;
1134 -> 1135 ;
1136 [label="x[3] <= 25.49\ngini = 0.498\nsamples = 15\nvalue = [2, 3, 10]"] ;
1134 -> 1136 ;
1137 [label="x[6] <= 178.15\ngini = 0.379\nsamples = 13\nvalue = [2, 1, 10]"] ;
1136 -> 1137 ;
1138 [label="x[20] <= 0.5\ngini = 0.5\nsamples = 2\nvalue = [1, 1, 0]"] ;
1137 -> 1138 ;
1139 [label="gini = 0.0\nsamples = 1\nvalue = [0, 1, 0]"] ;
1138 -> 1139 ;
1140 [label="gini = 0.0\nsamples = 1\nvalue = [1, 0, 0]"] ;
1138 -> 1140 ;
1141 [label="x[8] <= 95.5\ngini = 0.165\nsamples = 11\nvalue = [1, 0, 10]"] ;
1137 -> 1141 ;
1142 [label="gini = 0.0\nsamples = 1\nvalue = [1, 0, 0]"] ;
1141 -> 1142 ;
1143 [label="gini = 0.0\nsamples = 10\nvalue = [0, 0, 10]"] ;
1141 -> 1143 ;
1144 [label="gini = 0.0\nsamples = 2\nvalue = [0, 2, 0]"] ;
1136 -> 1144 ;
1145 [label="x[0] <= 82.0\ngini = 0.531\nsamples = 16\nvalue = [10, 4, 2]"] ;
1129 -> 1145 ;
1146 [label="x[0] <= 32.5\ngini = 0.403\nsamples = 12\nvalue = [9, 1, 2]"] ;
1145 -> 1146 ;
1147 [label="gini = 0.0\nsamples = 1\nvalue = [0, 1, 0]"] ;
1146 -> 1147 ;
1148 [label="x[8] <= 91.5\ngini = 0.298\nsamples = 11\nvalue = [9, 0, 2]"] ;
1146 -> 1148 ;
1149 [label="gini = 0.0\nsamples = 1\nvalue = [0, 0, 1]"] ;
1148 -> 1149 ;
1150 [label="x[12] <= 106.5\ngini = 0.18\nsamples = 10\nvalue = [9, 0, 1]"] ;
1148 -> 1150 ;
1151 [label="gini = 0.0\nsamples = 1\nvalue = [0, 0, 1]"] ;
1150 -> 1151 ;
1152 [label="gini = 0.0\nsamples = 9\nvalue = [9, 0, 0]"] ;
1150 -> 1152 ;
1153 [label="x[12] <= 135.5\ngini = 0.375\nsamples = 4\nvalue = [1, 3, 0]"] ;
1145 -> 1153 ;
1154 [label="gini = 0.0\nsamples = 1\nvalue = [1, 0, 0]"] ;
1153 -> 1154 ;
1155 [label="gini = 0.0\nsamples = 3\nvalue = [0, 3, 0]"] ;
1153 -> 1155 ;
1156 [label="x[12] <= 159.5\ngini = 0.629\nsamples = 85\nvalue = [15.0, 36.0, 34.0]"] ;
1128 -> 1156 ;
1157 [label="x[1] <= 0.5\ngini = 0.577\nsamples = 51\nvalue = [5, 26, 20]"] ;
1156 -> 1157 ;
1158 [label="x[0] <= 44.5\ngini = 0.546\nsamples = 37\nvalue = [4, 22, 11]"] ;
1157 -> 1158 ;
1159 [label="x[12] <= 126.5\ngini = 0.663\nsamples = 14\nvalue = [4, 5, 5]"] ;
1158 -> 1159 ;
1160 [label="x[6] <= 187.95\ngini = 0.32\nsamples = 5\nvalue = [4, 0, 1]"] ;
1159 -> 1160 ;
1161 [label="gini = 0.0\nsamples = 1\nvalue = [0, 0, 1]"] ;
1160 -> 1161 ;
1162 [label="gini = 0.0\nsamples = 4\nvalue = [4, 0, 0]"] ;
1160 -> 1162 ;
1163 [label="x[17] <= 0.5\ngini = 0.494\nsamples = 9\nvalue = [0, 5, 4]"] ;
1159 -> 1163 ;
1164 [label="gini = 0.0\nsamples = 3\nvalue = [0, 0, 3]"] ;
1163 -> 1164 ;
1165 [label="x[6] <= 202.0\ngini = 0.278\nsamples = 6\nvalue = [0, 5, 1]"] ;
1163 -> 1165 ;
1166 [label="gini = 0.0\nsamples = 1\nvalue = [0, 0, 1]"] ;
1165 -> 1166 ;
1167 [label="gini = 0.0\nsamples = 5\nvalue = [0, 5, 0]"] ;
1165 -> 1167 ;
1168 [label="x[24] <= 0.5\ngini = 0.386\nsamples = 23\nvalue = [0, 17, 6]"] ;
1158 -> 1168 ;
1169 [label="x[0] <= 68.5\ngini = 0.219\nsamples = 16\nvalue = [0, 14, 2]"] ;
1168 -> 1169 ;
1170 [label="x[14] <= 0.5\ngini = 0.444\nsamples = 6\nvalue = [0, 4, 2]"] ;
1169 -> 1170 ;
1171 [label="gini = 0.0\nsamples = 4\nvalue = [0, 4, 0]"] ;
1170 -> 1171 ;
1172 [label="gini = 0.0\nsamples = 2\nvalue = [0, 0, 2]"] ;
1170 -> 1172 ;
1173 [label="gini = 0.0\nsamples = 10\nvalue = [0, 10, 0]"] ;
1169 -> 1173 ;
1174 [label="x[0] <= 63.0\ngini = 0.49\nsamples = 7\nvalue = [0, 3, 4]"] ;
1168 -> 1174 ;
1175 [label="x[13] <= 0.5\ngini = 0.375\nsamples = 4\nvalue = [0, 3, 1]"] ;
1174 -> 1175 ;
1176 [label="gini = 0.0\nsamples = 3\nvalue = [0, 3, 0]"] ;
1175 -> 1176 ;
1177 [label="gini = 0.0\nsamples = 1\nvalue = [0, 0, 1]"] ;
1175 -> 1177 ;
1178 [label="gini = 0.0\nsamples = 3\nvalue = [0, 0, 3]"] ;
1174 -> 1178 ;
1179 [label="x[8] <= 113.0\ngini = 0.5\nsamples = 14\nvalue = [1, 4, 9]"] ;
1157 -> 1179 ;
1180 [label="x[0] <= 82.5\ngini = 0.34\nsamples = 10\nvalue = [1, 1, 8]"] ;
1179 -> 1180 ;
1181 [label="gini = 0.0\nsamples = 8\nvalue = [0, 0, 8]"] ;
1180 -> 1181 ;
1182 [label="x[2] <= 0.5\ngini = 0.5\nsamples = 2\nvalue = [1, 1, 0]"] ;
1180 -> 1182 ;
1183 [label="gini = 0.0\nsamples = 1\nvalue = [1, 0, 0]"] ;
1182 -> 1183 ;
1184 [label="gini = 0.0\nsamples = 1\nvalue = [0, 1, 0]"] ;
1182 -> 1184 ;
1185 [label="x[8] <= 126.0\ngini = 0.375\nsamples = 4\nvalue = [0, 3, 1]"] ;
1179 -> 1185 ;
1186 [label="gini = 0.0\nsamples = 3\nvalue = [0, 3, 0]"] ;
1185 -> 1186 ;
1187 [label="gini = 0.0\nsamples = 1\nvalue = [0, 0, 1]"] ;
1185 -> 1187 ;
1188 [label="x[6] <= 197.3\ngini = 0.657\nsamples = 34\nvalue = [10, 10, 14]"] ;
1156 -> 1188 ;
1189 [label="x[12] <= 166.5\ngini = 0.494\nsamples = 9\nvalue = [6, 1, 2]"] ;
1188 -> 1189 ;
1190 [label="x[3] <= 29.87\ngini = 0.5\nsamples = 2\nvalue = [0, 1, 1]"] ;
1189 -> 1190 ;
1191 [label="gini = 0.0\nsamples = 1\nvalue = [0, 0, 1]"] ;
1190 -> 1191 ;
1192 [label="gini = 0.0\nsamples = 1\nvalue = [0, 1, 0]"] ;
1190 -> 1192 ;
1193 [label="x[7] <= 105.5\ngini = 0.245\nsamples = 7\nvalue = [6, 0, 1]"] ;
1189 -> 1193 ;
1194 [label="gini = 0.0\nsamples = 5\nvalue = [5, 0, 0]"] ;
1193 -> 1194 ;
1195 [label="x[16] <= 0.5\ngini = 0.5\nsamples = 2\nvalue = [1, 0, 1]"] ;
1193 -> 1195 ;
1196 [label="gini = 0.0\nsamples = 1\nvalue = [1, 0, 0]"] ;
1195 -> 1196 ;
1197 [label="gini = 0.0\nsamples = 1\nvalue = [0, 0, 1]"] ;
1195 -> 1197 ;
1198 [label="x[6] <= 226.9\ngini = 0.614\nsamples = 25\nvalue = [4, 9, 12]"] ;
1188 -> 1198 ;
1199 [label="x[8] <= 96.5\ngini = 0.408\nsamples = 14\nvalue = [0, 4, 10]"] ;
1198 -> 1199 ;
1200 [label="x[3] <= 27.96\ngini = 0.375\nsamples = 4\nvalue = [0, 3, 1]"] ;
1199 -> 1200 ;
1201 [label="gini = 0.0\nsamples = 1\nvalue = [0, 0, 1]"] ;
1200 -> 1201 ;
1202 [label="gini = 0.0\nsamples = 3\nvalue = [0, 3, 0]"] ;
1200 -> 1202 ;
1203 [label="x[0] <= 82.5\ngini = 0.18\nsamples = 10\nvalue = [0, 1, 9]"] ;
1199 -> 1203 ;
1204 [label="gini = 0.0\nsamples = 9\nvalue = [0, 0, 9]"] ;
1203 -> 1204 ;
1205 [label="gini = 0.0\nsamples = 1\nvalue = [0, 1, 0]"] ;
1203 -> 1205 ;
1206 [label="x[22] <= 0.5\ngini = 0.628\nsamples = 11\nvalue = [4, 5, 2]"] ;
1198 -> 1206 ;
1207 [label="x[3] <= 34.115\ngini = 0.449\nsamples = 7\nvalue = [1, 5, 1]"] ;
1206 -> 1207 ;
1208 [label="gini = 0.0\nsamples = 5\nvalue = [0, 5, 0]"] ;
1207 -> 1208 ;
1209 [label="x[18] <= 0.5\ngini = 0.5\nsamples = 2\nvalue = [1, 0, 1]"] ;
1207 -> 1209 ;
1210 [label="gini = 0.0\nsamples = 1\nvalue = [0, 0, 1]"] ;
1209 -> 1210 ;
1211 [label="gini = 0.0\nsamples = 1\nvalue = [1, 0, 0]"] ;
1209 -> 1211 ;
1212 [label="x[6] <= 244.7\ngini = 0.375\nsamples = 4\nvalue = [3, 0, 1]"] ;
1206 -> 1212 ;
1213 [label="gini = 0.0\nsamples = 3\nvalue = [3, 0, 0]"] ;
1212 -> 1213 ;
1214 [label="gini = 0.0\nsamples = 1\nvalue = [0, 0, 1]"] ;
1212 -> 1214 ;
1215 [label="x[8] <= 107.5\ngini = 0.554\nsamples = 28\nvalue = [5, 17, 6]"] ;
1127 -> 1215 ;
1216 [label="x[14] <= 0.5\ngini = 0.142\nsamples = 13\nvalue = [0, 12, 1]"] ;
1215 -> 1216 ;
1217 [label="gini = 0.0\nsamples = 1\nvalue = [0, 0, 1]"] ;
1216 -> 1217 ;
1218 [label="gini = 0.0\nsamples = 12\nvalue = [0, 12, 0]"] ;
1216 -> 1218 ;
1219 [label="x[3] <= 19.15\ngini = 0.667\nsamples = 15\nvalue = [5, 5, 5]"] ;
1215 -> 1219 ;
1220 [label="gini = 0.0\nsamples = 3\nvalue = [0, 3, 0]"] ;
1219 -> 1220 ;
1221 [label="x[7] <= 102.5\ngini = 0.625\nsamples = 12\nvalue = [5, 2, 5]"] ;
1219 -> 1221 ;
1222 [label="gini = 0.0\nsamples = 3\nvalue = [0, 0, 3]"] ;
1221 -> 1222 ;
1223 [label="x[12] <= 147.0\ngini = 0.593\nsamples = 9\nvalue = [5, 2, 2]"] ;
1221 -> 1223 ;
1224 [label="gini = 0.0\nsamples = 4\nvalue = [4, 0, 0]"] ;
1223 -> 1224 ;
1225 [label="x[8] <= 111.0\ngini = 0.64\nsamples = 5\nvalue = [1, 2, 2]"] ;
1223 -> 1225 ;
1226 [label="gini = 0.0\nsamples = 2\nvalue = [0, 2, 0]"] ;
